307 64
104 1.1508362 -0.29807088 0.87430483 0.10097919 0.14204831 -0.4416918 0.2622006 0.06253155 -0.45758304 -0.33218876 0.2756431 0.4043952 -0.46843365 0.4045719 0.28483036 0.43685704 0.051453095 -0.369213 0.7786758 0.1383081 0.44352606 0.39226004 1.2159107 -0.26088485 0.0007248376 0.15270881 0.5099436 0.41690573 -0.18915957 0.27758688 0.6853554 0.16512649 0.43966725 -0.94567126 -0.21576253 -0.38005286 0.3291649 -0.87014544 0.3189424 -0.39793822 0.12705076 0.5318645 -0.3422941 -0.7498551 0.530553 -0.37296975 -0.6752881 0.68525916 0.16617668 0.6149281 -0.34535632 -0.3893546 0.910316 0.09161548 -0.020356959 -0.5049725 -0.08269518 0.15296091 -0.55399966 0.32374898 0.115702346 -0.40859297 -0.72427344 0.03693075
91 0.7338228 0.3313662 -0.38239342 -0.09735041 -0.009083796 -0.22599544 0.18487431 0.2971082 0.4014356 -0.018794434 0.44655293 0.060262196 0.24620207 0.67387813 0.1128029 0.10265397 -0.49716058 -0.07009247 1.2527877 0.5312178 0.2230931 0.5036848 0.047056336 0.14476003 -0.4814087 0.45963874 0.8377804 0.21994501 0.1007011 0.111892134 0.342207 0.21834937 0.044209734 -0.6554822 -0.348943 0.5788561 -0.25577152 -0.22685781 -0.25777683 0.8261793 0.70371264 -0.017524242 -0.50849324 -0.4694428 0.8656263 -1.008551 -0.788146 -0.26534063 -0.36678472 0.32767218 -0.35189956 0.61562127 0.3401694 -0.38173583 -0.081908666 0.33360776 0.3922315 -0.0016675874 -0.0590599 -0.10725928 0.44443685 -0.107737325 -0.82310224 0.34695935
70 0.46631786 0.4228145 -0.012108405 -0.52437556 0.3602834 -0.6799071 -0.09215018 -0.12370331 -0.23028786 0.12122891 1.0209752 0.33444664 0.46651253 0.45761067 0.11236926 0.20841086 -0.35339218 -0.85176307 0.46293 0.28744456 0.019784937 0.21236081 0.1360121 -0.9178536 0.15836504 0.8856157 -0.0073337713 0.20604444 0.56241417 -0.2905867 0.76473665 0.6222926 0.20842175 -0.27267542 0.3365111 0.05462918 0.033184532 -0.06042342 -0.42232564 -0.10829219 0.45994955 0.25449616 0.15341812 -0.33321425 0.62557405 0.8536748 -0.33146465 -0.116043136 -0.033750843 0.32015255 -0.11582077 -0.30754864 0.1788094 0.14291148 -0.45697618 -0.30279994 -0.38539717 0.06472038 0.4333179 -0.6497354 -0.18210965 0.25594386 -0.07362006 0.0747724
265 0.18705982 0.3044282 -0.2577681 0.09854977 -0.19929595 -0.7999655 -0.3427316 0.16915208 -0.4280371 -0.34194177 0.31314686 0.3403659 -0.100442655 0.67902666 0.21972491 0.022347238 -0.3690619 0.14542261 0.15977906 0.500851 -0.039371505 0.71235096 0.42506734 0.072762586 -0.0376407 0.30262062 0.13875705 -0.115794346 0.32951647 0.1265783 -0.06913404 0.10149199 0.381971 -0.2902907 0.28820202 0.8443051 -0.14221813 -0.37370145 0.19540614 0.7624322 -0.301425 0.6153412 0.43502596 -0.5030406 0.3638586 -0.016590942 -0.6552976 0.40036783 -0.45430058 -0.5582344 0.27107373 0.09783765 1.0644705 0.25872436 0.20524824 -0.69560075 -0.014940727 -0.52156824 -0.4969039 0.03313769 0.03323226 -0.10689364 0.41985157 -1.0730724
28 0.6080308 0.63760936 -0.5107141 -0.20091234 1.0649742 -0.5721456 0.34233686 0.21181832 -0.38730258 -0.16062267 1.0229516 0.08455926 0.1828737 0.8385657 0.33554026 0.43280107 0.28114426 -0.22670652 0.5450761 -0.43237433 -0.45063114 -0.19764423 0.3065833 -0.6495897 -0.16438735 -0.92188996 -0.10122908 -0.10132224 -0.012044282 0.6352364 0.8347185 0.09195668 0.003332646 0.3364178 -0.090335034 -0.16565382 -0.18055615 -0.10947665 0.2730349 0.38037658 0.106395565 0.053860225 0.3669371 -0.5766096 0.57235926 -0.47181442 -0.60343486 -0.023095127 0.047902185 0.66153336 -0.8100273 0.17879364 1.003927 -0.3225087 0.09520063 -0.26433438 0.39697096 0.22711988 -0.055612814 -0.49523985 0.47171405 -0.8282309 0.021198109 -0.84490216
98 0.3895117 0.120017074 0.31889194 -0.13111068 0.2959866 -0.48164743 0.18166019 -0.034899473 -0.10630593 -0.29976895 1.2296903 0.19887483 0.5482213 0.38681883 0.29215735 0.33560714 -0.1567217 -0.5813224 0.4793443 0.1774262 0.19285886 0.41504022 0.025235644 -1.040655 0.4163692 0.7023839 0.027628114 0.20198414 0.48261052 -0.13301383 0.5476573 0.58668023 -0.35153618 -0.6073203 0.45697019 0.08260367 -0.16935058 0.22890483 -0.27609384 -0.17097412 0.24210002 0.5709631 0.18392064 -0.4677073 0.9276177 0.30093852 -0.8328951 -0.53846943 -0.03497453 0.4706341 -0.12954189 -0.31168255 -0.2353472 0.056055326 -0.2924312 -0.4367772 -0.5537 0.25110704 0.3037647 -0.6621714 -0.63234013 0.28291902 0.029367259 -0.2179119
116 0.08831458 0.3179278 -0.26779628 0.123812474 -0.29334986 -0.8219579 -0.33697447 -0.08662097 -0.4192531 -0.55482525 0.30305892 0.49632367 -0.14114845 0.4557868 0.19878747 0.18159491 -0.2868152 -0.11844565 0.38880318 0.4972999 0.1579135 0.5179375 0.23398876 0.11883697 0.12930305 0.2009985 -0.0980392 -0.074431896 0.41286904 0.18117385 -0.15531626 0.02391687 0.42097485 -0.27557427 0.13896559 0.56247824 -0.015665062 -0.29752252 0.3335067 0.8657676 -0.14710155 0.4627008 0.53990054 -0.56844914 0.40986353 -0.18166907 -0.67182064 0.4652759 -0.71846855 -0.48094255 0.34566003 0.119427636 1.2034571 0.30770162 0.09208217 -0.5995045 -0.091152646 -0.6602967 -0.21610561 0.04776999 -0.08877251 -0.08266211 0.45414922 -0.9204822
46 0.5346791 0.13274924 0.15087312 -0.4193122 0.24686758 -0.68867666 0.07363296 0.047176734 -0.33910167 0.00519327 0.98686236 0.34804893 0.52005285 0.48984063 0.22456455 0.35014609 -0.20071764 -0.66061693 0.58871853 0.34206533 0.14483933 0.42417756 -0.11627185 -0.9432583 0.42929208 0.39048868 -0.38363245 0.016996188 0.38669583 -0.17181353 0.61023134 0.5776981 -0.26637638 -0.668516 0.5791969 0.21897341 -0.034578826 0.16709153 -0.12863316 -0.119790375 0.07376327 0.56360453 0.13976064 -0.33056304 0.85943174 0.2758915 -0.82474184 -0.7090759 -0.06468237 0.31403184 -0.04835308 -0.3701201 -0.43305773 0.25549176 -0.33465362 -0.48542246 -0.5834587 0.28035143 0.18955351 -0.5002455 -0.44836247 0.0099052 -0.26650104 -0.17362615
269 -0.18187647 -0.15629353 -0.2672185 0.24015221 0.19913802 -0.43746713 0.46400487 -0.10835156 -1.011095 -0.0056529134 0.59957916 0.84287935 -0.44077566 0.23287624 1.1808712 -0.0020537984 0.114844754 -0.3135717 1.1591763 0.028788386 0.107845604 -0.31951806 0.17773032 -0.1973455 0.29276147 -0.07396466 0.5599283 -0.42977732 0.32927498 0.5023747 0.2472077 0.33294263 0.93302286 0.10964852 0.46173915 0.80420077 -0.27157435 -0.6915682 -0.8606848 0.5718809 -0.03654801 0.50859076 -1.0554361 -0.81877923 0.11675721 0.16641808 -0.75348115 -0.26170075 0.13343121 0.42003143 -0.0823686 -0.22987221 0.6799499 -0.3538434 0.2508729 0.19861946 -0.032005597 0.25447416 0.037336838 -0.27195698 -0.5005196 -0.6563172 -0.27004322 -0.16117343
133 -0.3174444 -0.20996255 -0.28938565 0.21085301 0.270958 -0.5127127 0.46884686 -0.1600111 -1.0327446 -0.12752865 0.48417124 0.95004433 -0.47261894 0.29575098 1.3057762 -0.047576647 0.1473773 -0.20363586 1.1742886 0.12891239 0.089095555 -0.23724157 0.13412191 -0.15643072 0.3271741 -0.04448838 0.50570834 -0.4631521 0.30354875 0.4954157 0.27232707 0.37446177 0.9133636 0.11583226 0.42941618 0.75804305 -0.22125173 -0.6355169 -0.84818673 0.51430565 0.08054735 0.48992905 -0.97020125 -0.7737331 0.23981558 0.07573664 -0.6811327 -0.27542546 0.09201764 0.38285083 -0.10582838 -0.32704246 0.6344439 -0.35046652 0.1906761 0.29740235 -0.08534517 0.364429 -0.10181751 -0.19560745 -0.45959643 -0.568351 -0.30036336 -0.17652562
252 0.6280132 0.4132618 0.18036245 -0.3947523 0.41342473 -0.6911382 -0.12344115 -0.15340349 -0.26353276 0.13265316 0.9715051 0.17651738 0.38249224 0.5483571 0.18618108 0.24361329 -0.44841212 -0.8171835 0.46445292 0.45668447 -0.16193189 0.16877477 0.15809564 -0.7920935 0.29210144 0.71082294 -0.3809271 0.0685884 0.4202246 -0.5193467 0.63266766 0.51862186 0.15802611 -0.20816122 0.5636272 0.19723603 -0.06858747 -0.12939101 -0.39164242 -0.14385486 0.5132721 0.18394445 0.16220611 -0.44152796 0.75052047 0.6965959 -0.4963615 -0.43513638 0.0073110294 0.08239003 -0.19787864 -0.32734987 -0.06910881 0.19885567 -0.4945623 -0.36380914 -0.44018874 0.2318702 0.036158368 -0.6138635 -0.3248356 0.06802533 -0.25738633 -0.055767816
240 0.8255949 0.35636762 -0.19225949 -0.0042089405 -0.05576485 -0.25573826 0.12099026 0.09977961 0.27045366 -0.25077248 0.43629888 0.098648846 0.3203011 0.60676265 0.15375763 0.13614288 -0.56359196 -0.20345141 1.4279858 0.41011363 -0.014061954 0.3578978 0.1011744 0.14115037 -0.42770508 0.41620192 0.8125353 0.32736206 -0.01846059 0.110963404 0.48446995 0.27509743 0.048298687 -0.7087143 -0.3858543 0.4404608 -0.06596199 -0.5009623 0.024614206 0.7478846 0.6399045 -0.09698225 -0.6658882 -0.36368835 0.8464816 -1.1073261 -0.68049127 -0.21366045 -0.28489977 0.19868213 -0.25611648 0.6154615 0.31773633 -0.32730117 0.04269332 0.3008702 0.22510439 -0.087508515 -0.3291992 -0.020059649 0.28307444 -0.02254141 -0.82091564 0.40363073
99 -0.047388025 0.37041545 0.31319374 0.36410064 0.48033667 -0.86015433 0.27310643 0.3375015 0.5069441 -0.5185527 1.0958668 0.040919207 -0.8549281 1.2599837 0.018210543 0.24654207 -0.44629103 -0.49449065 1.2124293 -0.02046841 0.995562 -0.26398355 -0.10738194 0.11592555 -0.41213164 0.16815707 0.6164368 0.06310146 0.5535919 0.026305718 0.979044 0.22823288 -0.15122633 0.29691443 0.6559742 0.7469341 0.114236735 -0.67713034 0.12561527 0.5341874 0.23229852 0.7610928 0.42574748 0.10192503 0.29867673 -0.15642346 -0.3868068 0.68525594 0.25683314 0.34383613 -0.5076624 -0.62637335 0.19387843 0.08509656 0.67892075 -0.06035915 -0.3592761 0.2857713 0.4346467 0.24778655 -0.12453722 -0.6861583 -0.4506531 -0.49730104
33 0.50689006 0.44594768 0.7453495 -0.074019834 0.3841526 0.33460695 -0.32467848 0.18707672 -0.022751309 -0.34237778 0.5538085 0.5364716 0.5829747 0.8913509 0.116126224 -0.12050339 0.25622576 0.38800547 1.2612578 0.08134068 0.5600715 0.049435023 0.11664894 -0.1487967 0.36503315 -0.00683714 -0.34088892 0.1237412 0.53927577 -0.34721008 0.8770539 -0.7669839 0.13395333 -0.046398643 0.91577667 0.52328384 0.39053205 -0.32470217 -0.52544785 0.14994459 0.06552146 0.7134067 -0.84836316 -0.29819578 -0.042423014 -0.3560734 -1.3039066 0.14272837 -0.049745776 0.28466704 -0.13512872 0.19951962 1.1173294 -0.24943814 -0.46709993 -0.4362632 -0.26461986 0.593215 -0.23108825 -0.2837546 0.85553527 -0.28430045 0.44325668 -0.19252217
231 -0.058163155 0.27816823 -0.2699142 -0.2815478 -0.30971792 -0.62501407 -0.54302704 -0.5046774 -0.39320958 -0.4756727 0.49088302 0.07671619 -0.5241897 0.6063354 0.13741052 -0.111383766 -0.3606023 -0.022580974 0.27023053 0.12980291 -0.111200124 0.1122898 0.027445871 0.010312819 0.3308062 -0.14352943 0.31875098 -0.49945405 0.5109287 0.1275232 -0.04059018 -0.33711022 0.3080362 -0.9730679 -0.22910334 0.38691193 0.22540529 0.02570949 -0.40117094 0.66906685 0.12257789 -0.0073756846 0.8714635 -0.50558 0.21406445 -0.57683545 -1.4727777 0.8490483 -0.21793747 -0.20751613 0.08918961 -0.2345848 0.96025586 0.34426728 -0.26018715 -0.3099098 -0.14867966 -0.12513429 0.06781733 -0.36154202 -0.2440237 -0.30167428 0.3159495 -0.34357515
135 0.19625854 0.47338223 -0.23767474 0.058572646 -0.27653444 -0.8402601 -0.5833107 0.050075214 -0.290058 -0.38525522 0.289409 0.36783612 -0.13936733 0.37268797 0.32560965 -0.0049768863 -0.3383147 0.021225808 0.3040243 0.49342844 0.33922297 0.686623 0.38362032 0.12679578 0.29906157 0.19959116 -0.18656047 -0.06835692 0.32121485 0.06343999 -0.21296185 0.14574721 0.54046685 -0.30665368 0.2925028 0.7320943 -0.076868996 -0.23611504 0.40090752 0.96107864 -0.09683208 0.48540217 0.54237163 -0.70408946 0.17862119 -0.25023612 -0.69561934 0.47592798 -0.6289642 -0.48453718 0.10192598 -0.043693386 1.1237341 0.19300644 0.18421829 -0.5536528 0.03576162 -0.55039597 -0.31236693 -0.23357739 0.047280163 -0.1759704 0.30626747 -0.8929333
137 0.932062 0.23719807 -0.49395683 -0.08154095 0.18197638 -0.28499544 0.17221649 0.39223102 0.3046555 0.10102268 0.27641737 0.16500396 0.17893013 0.7663286 0.15889172 0.24570777 -0.39619657 -0.035518844 1.1856991 0.5644902 0.030787539 0.4028605 -0.10343136 0.27295265 -0.586421 0.3599543 0.67959416 0.3010523 0.30301547 -0.044129577 0.25133553 0.24186885 0.062879436 -0.71503264 -0.28219524 0.614496 -0.27351046 -0.32809162 -0.25539157 0.7557996 0.6529952 -0.023310807 -0.5215128 -0.4680773 1.0040418 -0.99335927 -0.80356455 -0.20774758 -0.40032357 0.24579303 -0.28572875 0.63266057 0.2104651 -0.42748216 -0.19044022 0.3843931 0.3254235 0.10457015 0.016144719 0.11207806 0.39891377 -0.16674268 -0.7134514 0.27538425
164 0.47453633 0.5372175 -0.025442185 -0.4131766 0.38914356 -0.70529854 -0.20496237 -0.24307764 -0.14985493 -0.11962877 0.9392946 0.34149858 0.5201966 0.5973538 0.22239657 0.22901672 -0.2781826 -0.7803405 0.39262357 0.31845176 -0.15491542 -0.01684332 0.22153565 -0.7877797 0.1062826 0.89201957 0.0031539402 0.17708664 0.6121017 -0.45086846 0.742859 0.6088559 0.30237848 -0.21969056 0.40479612 -0.053876597 -0.26180136 -0.2940429 -0.34382552 -0.17475255 0.6124865 0.11636823 -0.033608843 -0.3720872 0.57289493 0.9482456 -0.3619018 -0.038733438 -0.16584326 0.17084458 -0.22861479 -0.38471428 0.25684345 0.13622569 -0.42716435 -0.086675145 -0.41570792 0.052319504 0.18504177 -0.73227423 -0.22094001 0.41650862 -0.058630582 0.05718776
292 0.10934932 1.0024258 0.32205656 -0.6251319 0.3561714 0.40099698 0.1965316 0.06292474 0.35428715 0.26783675 0.21637848 0.59835947 -0.16361772 1.0397973 1.0445186 1.1062113 -0.58720255 -0.10785169 0.98167914 0.2753148 0.04598749 -0.19074398 -0.053301133 -0.07794531 -0.33832043 0.9919234 0.3588464 0.57450694 0.2141291 0.40502593 0.2610337 -0.067994416 0.38813305 -0.17827809 0.12917517 -0.010315687 -0.16435039 -0.35731924 -0.17361556 -0.18340519 -0.5019676 0.61613786 0.30006945 -0.6681092 -0.6193887 -0.44653514 -1.0007343 -0.2660087 -0.22231004 0.30591798 -0.2636935 -0.57974374 0.70975536 -0.05846945 -0.45389074 -0.0835939 0.52716756 0.1652943 -0.26443028 -0.3655381 -0.39979765 -0.6308719 -0.40724695 -0.9834915
276 0.13939406 1.0618356 0.34385133 -0.60551786 0.28164333 0.3974574 0.3017304 0.067420594 0.29219964 0.35149854 0.23196204 0.6003834 -0.22315992 1.0510358 1.0167286 1.1689367 -0.502479 -0.08593878 1.0473348 0.2812756 0.013115729 -0.20892219 -0.040712893 -0.043514386 -0.33751604 0.9550589 0.34832275 0.54925406 0.16830789 0.36441576 0.30560586 -0.07579606 0.34706908 -0.11599797 0.15854295 -0.10519493 -0.15103395 -0.3376604 -0.20313048 -0.25428113 -0.42052293 0.66007453 0.34993273 -0.68443227 -0.6706652 -0.47210217 -0.97598535 -0.19235855 -0.28187704 0.21032515 -0.2737558 -0.5383983 0.7024896 0.0761804 -0.4840472 -0.11777399 0.5261701 0.12444824 -0.22055133 -0.3688835 -0.40902448 -0.6444497 -0.33169997 -0.8757717
31 0.42278334 0.13134721 0.28025857 -0.29787308 0.16996546 -0.5243019 0.17759413 -0.14629503 -0.03944681 -0.033784367 1.2051332 0.29217497 0.45218247 0.47593218 0.3494322 0.4022659 -0.1816172 -0.44423985 0.4462732 0.26646927 0.23467995 0.3720311 0.032724995 -0.97309035 0.42217052 0.53541905 -0.11019082 -0.11049765 0.41101983 -0.2219629 0.5084671 0.6576953 -0.28751904 -0.6531224 0.5314492 0.27034014 0.019662496 0.40425846 -0.2268234 -0.22531028 0.013606555 0.70659965 0.22995797 -0.3830231 1.086601 0.043791547 -0.6521915 -0.53241384 0.044682924 0.49522465 -0.16631372 -0.25304982 -0.16982715 0.05718926 -0.3723439 -0.41752458 -0.537759 0.40179363 0.120261975 -0.7166953 -0.6247561 0.16548584 -0.11874186 -0.101768374
68 0.4429464 0.71962065 -0.18738787 -0.03261883 0.9951419 -0.70440733 0.37592575 0.37353522 -0.3525312 -0.21943805 0.784154 0.39926633 0.42290303 0.91243476 0.2980024 0.07518079 0.31471875 0.036358126 0.6329182 -0.29273972 -0.44099692 0.041173 0.66437566 -0.4002073 0.29204285 -0.5145403 -0.14790757 0.003782218 -0.17113617 0.9096364 0.68402135 0.378961 -0.06307012 0.21090396 0.5137239 -0.13514255 -0.2074755 -0.44708955 0.3164141 0.49851406 -0.0038368122 -0.15226148 0.6219689 0.021468507 0.6204691 -0.7363391 -0.38814095 0.022032827 0.2462275 0.46629125 -0.5596988 0.18833333 1.2353946 -0.6105362 -0.40062618 -0.06024161 0.46140268 0.51187426 0.22529446 -0.32842702 -0.14746055 -0.4983341 -0.0758781 -0.67864335
27 0.5451209 0.0039877775 0.24097031 -0.2610386 0.18596885 -0.4943052 0.022382118 -0.022356777 -0.17337258 -0.22599503 1.186902 0.12189266 0.49022073 0.30898717 0.3179056 0.2826803 -0.28902316 -0.48624 0.7127745 0.15091422 0.246331 0.54858935 -0.07741417 -0.98042697 0.27350816 0.4269108 -0.30501342 0.10787233 0.52618456 -0.040330257 0.38773137 0.6319053 -0.29389426 -0.5234859 0.48131144 0.1830166 -0.100774705 0.31515506 -0.19464931 -0.15564333 -0.045583382 0.4157019 0.1901402 -0.52086383 0.94452405 0.36810273 -0.91205025 -0.46482697 0.007259834 0.47173873 -0.1718859 -0.30791864 -0.35913324 -0.029519102 -0.21852681 -0.4964371 -0.46489152 0.21300119 0.04912943 -0.81748295 -0.6970841 0.2029297 -0.18088347 -0.19762096
1 0.537328 0.52370983 -0.027254323 -0.7521927 0.5633422 -0.720565 -0.40127182 -0.20926815 -0.43717605 0.0812023 0.97569454 0.48493448 0.3427363 0.52839524 0.099785134 0.24478358 -0.34912977 -0.78897625 0.5744946 0.17976262 -0.049127433 -0.009963462 0.14711526 -0.8203109 -0.014619347 0.8548691 -0.3651262 0.19102997 0.5592972 -0.6106806 0.7174721 0.74930733 0.33758095 -0.36190158 0.39551824 0.14188649 -0.26784337 -0.35107145 -0.2773343 0.020706264 0.40685588 0.13726671 0.0061968616 -0.3998445 0.5934663 0.8369987 -0.30702716 -0.06648677 0.048105683 0.12339489 -0.33009812 -0.36928704 0.10537597 0.19023596 -0.5825109 -0.263688 -0.11521027 -0.102550894 0.17487077 -0.5588369 -0.1990726 0.1424857 -0.16492774 0.17714815
266 0.4400606 0.6016 -0.19275858 0.3734893 -0.13164085 -0.6499015 -0.6848407 0.4819588 -0.16977927 -0.37012026 0.39667106 0.10737341 -0.03672508 -0.09469395 0.32603174 0.11339909 -0.1792074 -0.02281753 0.59203523 0.28944376 0.71177083 0.9034187 0.45453706 -0.035725925 0.3466438 0.1584012 -0.18647672 0.08973731 0.27152768 -0.08290857 -0.14125645 0.26809952 0.7921652 0.10777122 0.20474012 0.610117 -0.24854304 -0.43278676 0.5463546 1.2788229 0.034408502 0.3587401 0.6234228 -0.8286044 -0.19798526 -0.16115284 -0.7263703 0.33700243 -0.8129661 0.014737231 -0.21459986 -0.21410255 1.259541 0.56593764 0.20796621 -0.48823884 -0.11420572 -0.2892043 -0.0803381 -0.49750063 0.07195702 -0.23351915 0.06794501 -0.42479724
264 0.01606347 0.23327106 -0.15785456 0.35830173 -0.35438427 -0.7502932 0.0028914835 0.5436122 -0.6915786 -0.033226814 0.41880795 0.25903472 0.20462227 0.614523 -0.091121465 0.62188303 -0.17631868 0.068586215 0.41219702 0.25089186 -0.22161491 0.6872952 0.30442724 0.11926369 -0.39647555 0.3275643 0.6454403 -0.059415255 0.4359917 0.102822565 0.28123283 0.028223732 0.3101797 -0.16440594 0.46892458 0.7202746 0.3734571 -0.40219456 -0.17964533 0.7977786 -0.62136155 0.6954102 0.4431063 -0.5136856 0.639685 0.21907449 -0.5568071 0.29110867 -0.5212702 -0.37241364 0.20196536 0.2527129 0.89001393 0.32502222 0.24316035 -0.60452604 0.31362876 -0.4649881 -0.6251553 -0.33392093 0.13857812 0.18273865 0.41570225 -1.1129552
57 0.6026097 0.7245928 -0.4595349 0.004225495 1.0724747 -0.63756055 0.3170747 0.26220512 -0.313235 -0.25168636 0.91347075 0.29460058 0.33457232 0.9737356 0.36682656 0.11284622 0.22919206 -0.036334783 0.47714993 -0.43822882 -0.35129875 -0.13159187 0.42920098 -0.5953311 0.014586733 -0.778834 -0.034928583 -0.0036629594 -0.047207937 0.8888984 0.7984457 0.12089317 -0.02513745 0.20567831 0.2616047 -0.24310282 -0.17891794 -0.17168681 0.25949678 0.36657205 -0.00059401285 -0.11492401 0.5035838 -0.28102228 0.5332854 -0.56108207 -0.45965582 -0.0352823 0.15499924 0.54707885 -0.6299039 0.1391146 1.1521307 -0.5219287 -0.18201639 -0.12232556 0.3950325 0.25683367 0.073357776 -0.5144263 0.13913792 -0.6299744 -0.15983169 -0.8568129
247 -0.06917124 0.3565774 -0.2046592 -0.37596986 -0.26864743 -0.54059047 -0.35932654 -0.5323506 -0.41172662 -0.33415553 0.36120433 0.1007034 -0.5488811 0.5205273 0.09677971 -0.14678748 -0.59285593 -0.01770653 0.3441625 0.23758987 -0.23847571 0.1535862 -0.07986298 0.036689974 0.4013367 -0.28384188 0.25411937 -0.46996862 0.37000233 0.25234592 0.19529705 -0.2907733 0.26404414 -1.22405 -0.17992467 0.37926432 0.2895507 -0.30447572 -0.3299392 0.47909492 -0.011325354 -0.24913596 0.6758548 -0.5974329 0.29928982 -0.5822901 -1.5455501 0.64273626 -0.1971545 -0.20202105 0.13574663 -0.41653663 0.95921737 0.3980768 -0.49399212 -0.069808476 -0.15971725 0.050754827 0.3751657 -0.2979284 -0.06947069 -0.34497756 0.31216413 -0.37376338
115 0.21329162 0.38313562 -0.019674866 0.120744295 -0.2931079 -0.8580516 -0.43277448 0.029564805 -0.3904265 -0.4468651 0.21807535 0.5201618 -0.031111464 0.61804056 0.2234336 0.0073566823 -0.3982077 -0.0058769058 0.2679944 0.49706766 0.14002137 0.67545223 0.28339365 0.12949473 0.03011269 0.27174735 -0.01711307 -0.06672865 0.17650014 0.10927504 -0.055190038 0.32276145 0.33761227 -0.2242963 0.3088211 0.74834514 -0.2627018 -0.41780937 0.33050463 0.90781635 -0.16443504 0.5717626 0.40572804 -0.57523483 0.15293472 -0.09705835 -0.5626174 0.2234433 -0.48361585 -0.5567845 0.418469 0.020902678 1.3078539 0.2210556 0.21289308 -0.729042 -0.057590757 -0.6627653 -0.37071806 -0.067910485 0.05515984 -0.22770888 0.39564696 -0.99412733
282 -0.021158623 0.7004991 0.58826995 -0.10211295 0.21613994 0.21414706 0.40681913 -0.28284955 -0.3320706 0.33267465 0.7018053 0.6855737 0.6391785 0.36054146 0.6391415 0.09943271 0.22062847 0.08455533 1.4399719 0.16344556 -0.21627778 -0.0005176234 -0.2888944 -0.504679 -0.617162 -0.084648184 0.55747473 -0.18769476 1.1152475 0.17185621 0.023062643 0.815913 0.22457123 -1.061157 0.9466858 -0.26993188 -0.041400626 0.03254985 0.3118712 0.8136788 0.3720399 0.04366641 0.31079787 -0.44672436 0.32730147 0.32192346 -0.57420456 0.7822346 -0.49666557 0.31438878 0.3424143 -0.5403463 0.65466356 -0.4510155 0.13635235 -0.49463704 -0.028512416 0.5617125 -0.120198645 0.4872266 0.7914551 -0.9326897 -0.6505065 -0.503179
54 -0.008648569 0.4679786 -0.50925046 0.19084024 -0.37598175 -0.48497155 -0.24766847 -0.37574166 -0.41558802 -0.6037242 0.46250552 0.36513072 -0.47800457 0.42544106 0.09360603 -0.036581058 -0.15417974 -0.24155585 0.37838474 0.42273226 0.01890701 0.6165041 0.35849255 0.13686103 0.1898933 0.20687625 -0.045791592 -0.30218226 0.6078334 -0.04606363 -0.22174276 -0.29253682 0.34876972 -0.65128624 0.033403818 0.5894314 0.12377392 -0.23761488 0.2917111 0.6113783 -0.26027498 0.47021073 0.764896 -0.64367795 0.39206097 -0.39967078 -0.82033974 0.5065045 -0.67825896 -0.28003848 0.09299875 0.062443394 1.0791346 0.05524469 0.06735212 -0.4970514 -0.17682916 -0.34121594 0.12392236 -0.11104707 -0.059633326 -0.14782013 0.41360682 -0.82206637
11 -0.19913338 0.2280298 -0.35376862 -0.29292417 -0.11495555 -0.4219008 -0.48239577 -0.59531707 -0.3627921 -0.42863896 0.40768257 -0.053808466 -0.57325816 0.88055754 0.008851684 -0.123183735 -0.247542 0.17063093 0.17918405 0.1689648 -0.65472484 0.4822124 0.28189293 -0.13477309 0.18313733 -0.058422647 0.5005045 -0.23869506 0.5987639 0.051215217 0.063187756 -0.17073126 0.15809825 -0.66834503 -0.19255304 0.3667019 -0.13108271 -0.25610033 -0.3159672 0.6959533 0.004492778 0.020259889 0.51994205 -0.3709239 0.047359936 -0.39350715 -1.734606 0.63140446 0.27565885 -0.13007988 0.23774858 -0.19727492 1.0130455 0.34140494 -0.33935162 -0.5314586 -0.47243994 -0.031582493 0.107129954 -0.07374553 -0.27213666 -0.38363886 -0.06559431 -0.16100028
14 0.70063764 0.53690106 0.4423442 -0.653675 -0.2131562 -0.77861506 -0.1792897 -0.0030353346 -0.06639944 -0.20254637 0.24007164 0.6199855 -0.11090535 1.0180032 1.0840945 -0.34501165 -0.24876754 0.15200429 0.5085043 -0.046762045 0.5744981 -0.34603626 0.49171472 -0.34734747 0.0013472411 0.11534153 1.0390948 0.80401707 0.8514581 0.61718804 0.7511912 0.671097 0.54501826 -0.18521911 0.16758732 -0.1479381 0.1738766 0.119220935 -0.48719954 0.70852363 -0.9141337 0.95658946 -0.1841288 -0.67015517 0.4710411 -0.56855863 -0.71127945 0.17825451 -0.45608237 0.65122217 -0.2817353 -0.48355305 0.6525935 0.727992 0.7454182 0.5824672 -0.48171154 0.797802 0.33977184 -0.2145883 0.50105345 0.71819997 0.2393051 -0.5209804
243 0.70458865 0.7796584 -0.5555254 -0.06306843 1.1115264 -0.702403 0.25143525 0.28282526 -0.33937088 -0.3342274 0.95084864 0.3853615 0.2547454 0.8638935 0.18417645 0.44155958 0.3799786 0.049852774 0.47384465 -0.40258953 -0.5051978 -0.24944751 0.34797937 -0.69918406 -0.15798672 -0.85631144 -0.08720314 -0.04205187 0.03729026 0.79208 0.8690397 0.22479728 -0.14266829 0.25172254 -0.14533687 -0.271705 -0.23043351 -0.15850249 0.26795158 0.40967396 0.07100888 0.011862222 0.0501572 -0.6367571 0.4060238 -0.5210062 -0.54141855 0.02665784 0.007184 0.4302919 -0.7887849 0.011682585 0.96987396 -0.24686019 0.093606755 -0.16173416 0.15686226 0.2576594 0.05704149 -0.5223139 0.31862497 -0.78075314 0.022645786 -0.9353124
211 0.50064176 0.6491095 0.69025993 0.6427556 -0.20643625 -0.96940726 0.49343276 0.25979638 -0.69241935 -0.44807467 0.8623572 0.13328514 -0.34858522 0.5575427 1.4953918 -0.047658887 -0.358969 0.24643293 0.80631423 0.23642068 -0.39515567 0.45116916 -0.37784493 0.099637434 -0.16546792 0.6596789 0.1745739 0.3760815 0.4305844 -0.11550361 0.7114973 -0.23249805 0.73667157 0.16624248 -0.009621128 -0.60254765 0.26900625 -0.07924243 0.12603132 1.0031056 -0.59913325 0.33936313 0.11426027 -0.033633903 0.37718782 0.17027943 -0.77122796 0.7657126 0.021963704 0.57464206 -0.71631306 0.22140718 0.18561573 -0.4845444 -1.0372593 0.0043850723 -0.4075751 -0.009119724 0.22916883 -0.24859697 0.30202082 -0.5549167 -0.5916201 -0.10327738
26 0.5596816 0.389076 0.08442066 -0.10222556 0.20986354 -0.5875755 -0.017639015 0.09641596 -0.18844162 -0.18768498 0.87288105 0.38850087 -0.1525189 0.87064564 0.5155551 0.3651921 -0.17817785 -0.3373659 1.0494831 0.30826777 -0.049069997 0.26345676 0.026127307 -0.37457234 -0.010739659 0.3287196 0.31730652 0.023338702 0.42528638 0.26244548 0.64526117 0.3731408 0.45891926 -0.401692 0.35869634 0.21908736 -0.14641261 -0.50541514 -0.29385978 0.6343763 -0.08122101 0.2829134 0.08644377 -0.6021597 0.54077226 -0.3865919 -0.9550611 0.25633606 -0.18983099 0.29209957 -0.38300997 -0.23221989 0.8347669 -0.011159246 -0.27448484 -0.42703944 -0.14821094 0.2318664 -0.086817205 -0.23052436 0.038236957 -0.34431937 -0.17749815 -0.5072355
296 -0.20026432 -0.03259545 -0.09852828 -0.07738665 0.26981476 -0.7365566 -0.3434918 0.15825568 0.46566504 0.3693127 1.1166071 0.8963548 0.84164286 0.60602427 1.2142936 0.27371684 0.32455128 -0.19239305 0.86332685 -0.20033133 -0.16702932 0.7541864 -0.36901566 -0.4754315 0.25235128 0.85762966 0.69957083 -0.24562818 -0.27649528 -0.08442253 0.22647536 -0.2547443 0.7509105 -0.2339147 0.27347884 0.05277565 0.18391316 -0.5132612 0.11774914 0.043309428 -0.37331343 -0.5353584 -0.34653983 -0.9432927 0.42415997 -0.46182573 -0.7047677 0.18982147 0.3110756 0.723495 -0.8081506 0.2506169 0.9134201 0.9719084 0.088082425 -0.16947822 -0.70673245 0.43511862 -0.111117765 0.4983023 0.5335871 -0.22570682 -0.15345827 -0.85715014
141 0.14034122 0.34400415 0.3053244 0.6176247 0.10756085 -0.21846546 -0.31185466 -0.085699186 0.25654826 0.5016407 1.0269048 1.1016624 -0.34058106 0.055834964 -0.076618105 0.020482248 -0.40814903 -0.23235478 0.38360932 0.6567961 -0.4430068 0.43068862 0.06216829 -0.831202 -0.67829674 0.21106653 0.26949432 0.9743422 0.2463201 0.39909565 0.5082138 1.1881951 0.11203098 0.6131674 0.31329763 0.04689611 -0.37763295 -0.5345596 -0.09262439 0.25580335 -0.5247181 -0.14194039 0.3169567 -0.28618383 0.5589355 -1.2223381 -1.2011333 0.55102295 -0.47648945 0.15256478 -0.60993904 -0.74258614 0.15040983 0.15766315 -0.49629056 0.026139272 -0.47719336 0.12425369 0.019677285 0.19819242 0.44215736 -0.40744784 -0.15298906 -0.3003634
75 0.61155945 0.072244845 0.5669573 -0.22560385 0.34143704 -0.658405 -0.5515613 -0.16388455 -0.8912437 0.46047762 1.40483 0.21953066 -0.025438212 0.6028806 -0.1717729 0.16976786 -0.41565263 0.08986758 1.1852844 0.92567736 0.47897992 -0.31044376 -0.10189337 0.5351111 0.32252976 0.008053794 1.0870705 0.23417117 1.2919269 0.20942599 0.5405782 0.11828353 -0.081099115 -0.0340006 0.5896945 -0.6915763 -0.72629935 -0.18617985 0.15399933 0.568104 -0.39818698 0.37569 -0.5369068 -0.8599124 0.66957986 -0.72165066 -0.43609864 0.37989193 0.8661236 0.041989394 -0.6764512 -0.40665427 0.69695914 -0.55724484 -0.33579168 0.1629769 0.049963236 -0.14575209 -0.26189148 -0.07902478 -0.22839557 -0.37906095 0.63852125 -0.67010415
260 0.6081332 -0.107601404 0.7918085 -0.741883 0.5018761 0.24584721 -0.045504533 0.1860397 -0.6006302 0.042994432 0.878359 0.26715192 0.06032873 0.86542976 0.70226127 0.357266 0.27947503 0.014470174 0.18805021 0.546716 -0.33778954 0.56731087 -0.73193175 -0.45315126 -0.20481971 0.065575145 0.6592295 -0.4717783 0.39048174 0.66650975 0.83834255 0.40169564 1.0213089 -0.16117904 -0.222987 -0.13170354 -0.34989172 -1.1090713 -0.030367129 1.0568352 -0.36185783 -0.011206108 0.50579464 -1.1679164 0.50315577 -0.7851105 -0.0332093 -0.09537145 -0.7468654 0.22368953 -0.4094035 -0.6903905 0.4735156 -0.26537722 0.13489865 -0.7559046 -0.1765611 -0.0840046 0.28889456 0.06933259 -0.6100183 -0.020949464 -0.39952204 0.2926529
154 0.33771876 0.17075457 -0.14782035 0.4664981 0.7395188 -0.109296106 0.4842935 -0.6073625 -0.5706502 -0.10484906 0.797569 -0.2687048 -0.2978641 1.0076226 0.35869455 -0.04094481 -0.81979334 0.11521707 0.40425074 0.4697157 0.49110976 0.3519144 -0.17528434 -0.07693459 -0.68192524 -0.2437099 0.19092403 0.744092 -0.07248683 0.17451367 0.34941146 0.8051107 0.90632516 -0.8030864 0.9946334 -0.7015712 -0.45307952 0.4055758 -0.50636894 0.33650693 -0.2869214 0.46490714 -0.82364583 -0.48074195 0.60806817 -0.0764066 -0.8891833 -0.15670544 -0.5366919 0.8447731 -0.35816127 0.12117044 1.2572929 0.8798649 -0.7590318 -0.5846859 0.07747028 0.03833513 -0.12255867 0.0017324034 0.38530126 -0.5651791 0.3436628 -0.2524023
150 -0.56729 0.12944604 -0.0051394375 0.52339375 0.76695883 -0.7111342 -0.081350476 0.26265958 0.8703134 0.4739651 0.4225435 0.4936153 -0.22088718 0.9897617 0.3766627 0.39162472 -0.08961018 -0.6699323 0.7938389 0.027154246 -0.019177664 0.08545632 0.18201579 -0.85634136 0.74441034 -0.19066727 0.77049905 0.05135475 0.21752489 0.18802892 0.47201806 0.69623464 0.31133062 -0.96594614 -0.29474813 -0.14171118 -0.33791122 -0.5051268 -0.507029 0.7675287 -0.15768872 1.1137996 0.31039545 -0.5033595 0.2626978 -0.009081233 -0.29898867 -0.17111419 -1.1452289 -0.026483336 -0.76637566 -0.3891111 1.3469334 -0.07520586 -1.0184531 -0.28484824 -0.11654828 0.4556002 -0.30069137 0.2710157 0.36975077 -0.87987286 -0.35222656 0.36595112
193 0.2236372 0.12470664 -0.05277101 -0.1433599 0.7609128 -0.57555056 -0.105424255 0.028825603 0.0009467694 0.105772324 0.3976855 -0.11016518 -0.23820478 0.6872568 0.31797042 -0.30257815 0.18228145 -0.6348207 1.2795087 0.24586387 1.0961711 0.30265364 0.26515248 -0.6057761 -0.86693287 -0.17305323 0.4419049 -0.57967037 0.36014664 -0.4534092 0.5067905 0.5072028 -0.015835183 0.03177811 -0.017802747 -0.35534674 -0.3583789 -0.88545793 -0.4733852 0.66904753 -0.38749278 -0.3627719 -0.15233687 -0.62147295 -0.0699555 -0.7040014 -0.45992446 0.07923658 -0.5359289 0.65844256 0.39116642 -0.15402795 0.57076645 -0.23488295 -0.88802177 -0.48238084 -0.6270133 0.93250287 -0.7206679 0.005587944 -0.25990766 0.13521652 0.004768172 -1.049013
40 0.92317235 0.5288088 0.8480961 -0.007843811 0.4152527 -0.48620957 1.0873591 0.75555426 0.21170558 -0.88940024 0.8117389 0.60029435 -0.32919198 0.15340716 0.30286562 -0.15571113 -0.05784085 -0.5537478 0.72084296 0.5851826 0.23043779 -0.32672063 -0.34447888 -0.41328728 -0.31683755 -0.075660646 -0.40341988 -0.5648714 0.61713374 0.48531982 0.73896605 0.62232625 1.0494419 -0.777663 0.06940016 0.23564698 -0.26165396 -0.3539188 -1.0891026 0.28558633 -0.4318773 -0.016732799 0.38114503 -0.2511989 -0.41674274 -0.26700908 -1.0457488 0.08270603 -0.55514055 0.10649485 -0.7818743 0.3148002 0.60503674 0.4291443 0.04799871 -0.07078063 0.08907434 0.1454736 -0.55636024 -0.046658784 0.5206537 0.19628955 -0.37316886 -0.38294235
251 0.8244337 -0.101767376 0.0165848 -0.13917871 0.34010485 -0.53276557 -0.07757717 0.40363428 0.14334936 -0.7456039 0.17633301 0.13050218 -0.20805952 1.4182066 0.8055149 0.21656969 0.44613016 -0.690292 0.44673765 0.023294799 0.4152055 0.14779814 -0.2502268 -0.25134128 -0.051385395 0.8509582 0.18681498 -0.24490333 0.4189617 0.5432975 -0.06687942 0.2681226 0.3024997 0.48255938 0.11734896 0.15585124 -0.078811616 -0.13815683 -0.2878893 -0.05455638 -0.54466784 0.053577345 -0.60729194 0.34022486 0.9915078 -0.8365937 -1.0222727 0.13311657 -0.62482584 -0.13073134 -0.9124096 -0.43340507 1.1942655 0.82076347 -0.0491993 -1.2517774 0.29154992 0.6015919 0.51147413 -0.5178468 0.0719076 -0.47582573 -0.44980174 0.10807568
176 0.4655216 0.3982984 0.6940001 0.3381564 0.58446056 -0.26867637 -0.20197432 0.22479771 -0.45162687 -0.33453315 0.006420124 0.39644197 -0.11265611 1.0415512 0.37743884 -0.079938814 -0.6417512 -0.57170206 1.3951515 -0.39515293 -0.37260827 0.018172698 -0.04266499 -0.63511705 0.22691907 -0.013053484 0.66072017 -0.022514572 -0.80840075 -0.28362742 0.54640824 0.0602378 0.5885028 0.018060058 0.2141292 0.771674 -0.25870278 -0.22435036 -0.9728334 -0.16969073 -0.3477989 0.4180711 -0.24393286 -0.80406237 0.8701704 -0.71526325 -0.2683985 0.9705126 -0.9405274 0.2676974 -1.295966 -0.112801805 0.4742817 -0.24765888 -0.34700453 -0.31152645 -0.42500097 -0.42499763 0.68138844 0.043967407 -0.09821918 0.21386811 0.15787235 -0.78546274
144 0.81888586 0.38012844 -0.88682073 0.4663053 0.10808423 -0.34823626 0.15738222 -0.15570971 -0.39995772 -0.073518835 1.103178 0.1299727 0.49673834 0.8449303 0.4223828 0.21610454 0.29103875 -0.4063331 1.1395227 -0.34727097 -0.038109332 0.6954554 -0.09930178 0.01667507 0.33108112 0.39085463 0.4541954 0.40867224 0.3703162 -0.63361245 0.11788684 0.26817667 0.5575317 -0.06643421 0.4715941 -0.7280235 -0.0055997013 -0.119920686 -1.2265648 0.75446564 0.15278603 1.1274902 0.08855421 -0.27651548 0.08336973 -0.5506597 -0.37391585 0.96557707 0.017328456 0.61402315 -0.8043674 -0.5289855 0.7181005 -0.31060913 0.275188 -0.484546 0.3463478 0.7169581 -0.4270318 0.7986082 -0.47850502 0.14402565 -0.20378652 -0.29509714
281 0.39351022 0.9491458 0.79592776 -0.039595168 0.27085474 -0.03490032 0.09315438 -0.4105759 -0.19892456 0.22304231 0.63983464 0.49252626 0.63478863 -0.03682249 0.7900098 0.40378416 -0.05482081 0.39611724 1.2288697 -0.06109958 -0.27560607 -0.1102391 -0.20918132 -0.5122146 -0.5916327 -0.19035724 0.9517089 -0.3938994 1.0500183 0.16114223 -0.042292517 1.0130551 0.28148538 -1.0106193 1.1014165 -0.099304944 -0.06371339 -0.12639192 0.3500814 0.48681837 0.20296763 0.3437649 0.2415188 -0.3646331 0.35236973 0.3257596 -0.71304387 0.83507764 -0.35961464 0.2087627 -0.0025331872 -0.08661846 0.6851798 -0.31814358 0.39020482 -0.3839271 -0.19247381 0.7027932 -0.009164545 0.4826936 0.7305416 -0.84348255 -0.45201764 -0.36845413
127 1.0653754 -0.53531754 0.8190996 -0.00017437332 0.20738712 -0.5197191 0.16317119 0.040482424 -0.5598282 -0.26770636 0.31862947 0.3330108 -0.68068606 0.4927345 0.28945193 0.58090806 0.34080347 -0.2647744 0.8616224 0.22985098 0.51585895 0.41998085 1.2161887 -0.02004517 0.07677139 0.29202214 0.48541784 0.27388573 -0.14296438 0.3550228 0.91605014 0.17683382 0.4881096 -1.0532668 -0.14342256 -0.45015386 0.38428944 -0.73019123 0.13918677 -0.567238 0.07934464 0.5255241 -0.11078532 -0.70356464 0.5457822 -0.15678895 -0.48070997 0.77153224 0.024102163 0.6629089 -0.43133524 -0.35609472 1.0247023 0.03196393 0.02629231 -0.42078608 -0.015199501 0.17270279 -0.56214744 0.111371055 0.22063969 -0.34185526 -0.59678394 -0.0337691
121 1.0118903 -0.6178022 0.31846258 -0.5591458 0.49531308 -0.92475706 0.7956547 -0.014597098 0.06262288 0.5139007 0.847688 -0.12886238 -0.1411659 0.12782815 0.780703 0.24526803 0.48345882 -0.3847542 0.8642728 -0.07898096 -0.4005093 0.52009064 -0.44256312 0.9934441 0.03752596 0.1800996 0.39776152 0.26024902 0.9656244 -0.097243845 0.5032057 0.6266175 0.86647326 -0.3403287 0.34463543 0.6128424 -0.1775687 -0.07381209 0.051943105 0.44303894 0.3932802 -0.07499166 0.04424978 0.48496667 0.24797948 -0.5958029 -0.80746704 0.16087478 -0.23236741 0.55179274 -0.6622367 -0.873126 1.1793535 -0.13882454 0.005239511 -0.27437186 -0.71998817 0.077762514 -0.0010776186 -0.44655657 -0.05386204 -0.07609904 -0.040421985 -1.2231549
196 0.20804843 0.3501103 0.37777254 -0.2589125 -0.08575401 -0.64189583 -0.78268963 0.8091381 -0.14689001 -0.10174058 1.871402 0.83104795 -1.2676152 0.2303137 0.31069112 0.19688976 0.027713438 -0.21153128 0.7485369 -0.29874676 -0.55682606 0.032718685 -0.3536933 -0.14224564 -0.23661548 -0.013591539 0.5037344 0.54479915 0.025877468 0.16738415 0.09537552 0.020697521 0.21233669 -0.256125 0.6438774 0.25195566 -0.033618845 -0.18782593 -0.20185179 0.052922063 0.24065264 0.32988665 -0.29393893 -0.41226608 0.22942649 -0.5118903 -0.50905126 -0.17044188 -0.6665208 0.2658377 -0.066636294 -0.7243768 1.0020883 -0.36110944 -0.08779788 -0.61763686 0.42375708 0.9357803 -0.05770454 -0.032544173 0.51903343 0.5382296 -0.4643464 -0.24892671
202 0.3877004 0.82751673 0.9118361 -0.13599253 0.029493237 -0.341301 1.1048388 0.7397532 0.30951393 -0.33244067 0.9446208 0.27690932 -0.4217066 0.22058271 0.42686754 -0.5750747 -0.21352787 -0.6845699 0.33313304 0.3892295 -0.23548627 0.16845655 0.019084893 -0.3858009 0.10165264 0.06883228 -0.34785765 -0.45386297 0.83024424 0.6223878 0.9101356 0.7084925 0.65537024 -0.87053627 0.7647949 0.19031021 -0.17066401 -0.5915358 -1.0879707 0.037669946 -0.19592746 0.14326893 0.1509023 -0.39164037 -0.21809 -0.610698 -0.7883512 0.09498731 -0.8786016 0.548463 -0.73819035 0.45404977 0.67951995 0.049329557 0.056348857 0.21157946 0.028296884 -0.13565752 -0.85496527 0.06354635 0.3472499 -0.15290162 -0.057464577 -0.5112035
198 -0.07805372 0.4333714 0.5699807 -0.34679022 -0.051492777 -0.7473709 -0.74544525 0.5659243 -0.3005326 -0.1478709 1.7367835 0.7748398 -1.2726976 0.35627723 0.50466746 0.15932576 0.23578879 -0.2986779 0.73799676 -0.36433303 -0.30378774 0.115858994 -0.35714358 -0.1233139 -0.4898453 -0.12152096 0.5180591 0.65086526 0.2584805 0.12991741 0.3218392 0.09031142 -0.0587351 -0.28065723 0.49825552 0.45028225 -0.060870916 -0.21906966 -0.13972838 0.091449015 0.31984276 0.27052435 -0.2509588 -0.5912811 0.13871445 -0.59799564 -0.40490824 -0.3147527 -0.535457 0.28323427 -0.030234657 -0.59424746 1.0223508 -0.238347 -0.28269494 -0.7270135 0.44814062 0.95177555 -0.20225377 0.027107652 0.58305514 0.6269048 -0.49128088 -0.22032697
15 0.5932417 0.015305694 -0.23558426 0.41286504 -0.39664024 -0.47748297 0.12556355 -0.008368537 0.01874473 -0.38259834 0.21966329 0.3199525 -0.7928977 0.25964242 0.2499421 0.98999447 0.07231747 -0.4918676 0.945916 -0.42057663 0.32532036 0.84787637 0.04193917 -1.0103343 -0.099226326 0.34441838 0.1381135 -0.09786376 1.2398504 0.014361868 0.4479868 0.4751917 0.4537324 -0.36674324 1.2115602 -0.3687372 -0.29694393 -0.50018626 -0.35278434 0.36905196 0.43804443 -0.26030505 -0.37985736 0.22548997 0.49697956 -0.84539294 -0.5893774 0.0790455 0.606399 0.13121632 0.05866308 -0.28116488 0.6704402 0.149126 -0.41268688 0.19304852 0.5573682 0.32428798 -0.37803885 -0.6330319 0.7065307 -0.86267495 0.37405843 -0.6568223
201 0.41598767 0.8462834 0.6678762 0.48105726 -0.014964738 -1.0404364 0.440784 0.19624074 -0.83681476 -0.20299815 0.639188 0.0919665 -0.34127647 0.61789244 1.4430496 -0.13329732 -0.28330752 0.025923105 0.9613567 0.48275617 -0.32693747 0.32399422 -0.30262196 0.20266756 -0.25834948 0.57665306 0.17490853 0.3220052 0.33485022 -0.2520046 0.751425 -0.11398856 0.6905213 0.2629831 -0.010180084 -0.6220614 0.38769677 -0.17318311 0.047843236 1.018841 -0.8344198 0.34790438 0.2390911 -0.0351734 0.4568418 0.22218975 -0.7760721 0.79834926 -0.09618317 0.7016724 -0.5671447 0.29321802 0.28868076 -0.4475735 -1.0484443 0.18916826 -0.45140278 -0.115260184 0.11575641 -0.09806806 0.14605594 -0.54413784 -0.5835669 0.03087127
16 0.5471439 0.62487 0.9069584 -0.015801458 0.14470363 -0.63876563 0.9853592 1.0189732 0.22805634 -0.634528 0.72079545 0.37904614 -0.3097463 0.12852418 0.44395155 -0.33205023 -0.24960451 -0.5433683 0.52166873 0.23717947 -0.014134927 -0.13789162 -0.2316675 -0.30780828 -0.080528304 0.16598886 -0.39095053 -0.69334877 0.75982547 0.6939293 0.9037752 0.75290394 0.57629436 -0.7948948 0.47568434 0.1572851 -0.29059047 -0.45189855 -1.0959489 0.14990188 -0.26503924 0.03338172 0.30328453 -0.43469903 -0.3747529 -0.403028 -0.92965394 0.06691324 -0.6320747 0.23998192 -0.8922786 0.3224868 0.749984 0.3253835 0.054345734 -0.0024668826 0.030637067 0.011544443 -0.8419125 0.11066836 0.40475407 0.008880068 -0.3293316 -0.31071335
143 -0.20296843 -0.15528426 -0.101903066 -0.058447313 0.12769212 -0.21330518 0.4296431 -0.11975201 -0.9396376 -0.0401387 0.6916303 0.98431903 -0.4432397 0.32995495 1.0973834 -0.1206506 0.23027165 -0.47555527 1.2994705 0.2000619 0.10613525 -0.009636947 0.32645488 -0.05093475 0.05787271 -0.18275489 0.6040474 -0.6601836 0.2853849 0.51259714 0.08474125 0.42822888 1.0674973 0.12506345 0.28208283 0.83697695 -0.064773686 -0.48367816 -0.8485305 0.5274324 -0.01651462 0.6638719 -0.97414684 -0.6158089 0.2890779 0.14140895 -0.483477 -0.25316888 0.18339102 0.20263983 -0.36429307 -0.15879142 0.6899363 -0.16571783 -0.022586277 0.22772567 0.012775067 0.47553107 0.00245694 -0.46223053 -0.48130426 -0.86327004 -0.22619234 -0.15645371
106 0.85140693 0.52982473 -0.07004452 -0.17957962 -0.050018363 -0.004722503 0.37287903 -0.20086889 0.3157066 -0.29757968 0.060332626 0.54810923 -0.41195357 0.22805348 0.53856623 0.6328622 0.18751484 -0.38315964 0.05132301 0.9456002 -0.060646575 -0.401446 -0.52008337 -0.18969744 0.093413174 -0.14659916 0.10987257 0.47044456 0.2971823 0.5328686 0.7896648 0.43172568 -0.2372026 -0.53174585 0.7066625 0.053827565 0.45948297 -1.1205877 -0.65603465 1.1183639 -0.11837666 0.6588481 -0.63982576 0.09060234 1.165772 0.16821145 -0.96981347 0.8803185 -0.31728742 0.059091825 -0.8824425 -0.57473713 0.54369307 -1.0420501 -0.42579737 -0.70161724 0.097911514 0.31589136 -0.3277291 -0.31028184 -0.32342514 -0.535973 0.21615247 -0.47739834
5 0.25722438 0.17749992 0.12067602 0.3040762 0.260279 -0.060996618 0.3248049 -0.4321624 -0.55141205 -0.10860086 1.0420659 -0.14185305 0.01662005 1.212068 0.3339222 0.21884893 -0.55539316 0.16963363 0.37267202 0.12110239 0.27287325 0.22848694 -0.41655928 0.08596895 -0.71692306 -0.27013066 -0.14043052 0.77293676 -0.10157881 0.49356514 0.42733583 0.9623556 1.2808013 -0.9042126 0.7540021 -0.5012743 -0.42662588 0.25988612 -0.35023254 0.49092448 -0.33211067 0.13533531 -1.044179 -0.6944668 0.7151282 -0.16423588 -0.663278 -0.28659028 -0.3922649 0.64504385 -0.2466601 0.114316866 1.1827682 0.76429313 -0.7608118 -0.5532437 -0.17027065 0.18689463 -0.20565383 0.26549467 0.13797258 -0.40370184 0.31348288 -0.24932168
64 -0.015245838 0.9717264 -0.21675475 0.48813608 0.92308825 -0.49181682 -0.5818185 -0.11304909 0.36235225 -0.12521316 0.71308476 -0.4509002 0.16100298 -0.46783888 0.9872536 0.41404814 0.10092179 -0.52856964 1.3230315 0.5704188 0.2028498 0.07215481 -0.2842618 0.29190722 -0.8535948 0.17043005 0.3075921 -0.49338847 0.53103954 1.1531092 0.4303845 0.4581692 0.70835286 -0.38832438 0.5423607 -0.19576912 -0.46568188 -0.42278862 -0.42467064 0.3767062 -0.35952288 1.002863 0.3489226 -0.65204346 0.97847676 -0.40643898 -0.79490846 0.31136522 0.5485841 0.051443942 -0.17006549 -0.38878512 0.4595664 0.26208842 -0.27430335 -0.5232733 0.42835093 0.58893406 0.4385865 -0.065836504 0.37713048 0.2920263 -0.12695295 -0.1254179
205 0.30723754 0.20752917 0.59504867 -0.90786505 -0.3393238 -0.8753372 0.7013177 -0.63742715 0.8150924 -1.1220909 0.3111442 -0.16016829 -0.020931667 0.7371041 0.3347871 0.16555491 0.32216778 -0.2939306 1.2333103 -0.2864367 0.08177886 0.67687905 0.36228913 -0.66044205 0.5232082 -0.041569225 0.62122756 0.21150512 0.39964175 0.39589602 1.2103438 -0.104008175 0.8275777 0.34556875 0.3790485 0.5178612 0.26733747 -0.18497823 -0.23992522 1.2150636 0.083876655 -0.1718268 -0.04274298 -1.4287738 0.16231102 0.04362177 -0.46333697 0.17797756 -0.21862406 0.2548596 -0.9091196 -0.73393446 0.40927282 0.3094546 -0.7775444 -0.051170852 0.33465746 0.50833625 -0.30218965 -0.08113432 -0.18229441 -0.2238535 -0.6346312 -0.9585544
246 -0.18880084 0.16044787 -0.4989839 -0.22523175 -0.0018728535 -0.29639554 -0.44791108 -0.6415566 -0.20247972 -0.6097683 0.3523695 0.00062144164 -0.68816185 0.76829904 -0.081573844 -0.1794405 -0.019664036 0.123507805 0.47282147 0.41165963 -0.9618546 0.44683713 -0.20640653 -0.23646152 0.15328267 0.08373824 0.37628925 -0.37889552 0.286461 0.1878957 0.3721394 0.14692561 0.25332463 -0.99862814 -0.029672958 0.39123115 0.4826282 -0.7779298 -0.113422304 0.2839361 -0.17504355 -0.08778416 0.28850904 -0.40543312 -0.24116749 -0.41522518 -1.6663796 0.5264862 0.22844288 0.3169964 -0.060761638 -0.064058416 0.97918 0.36482248 -0.7607241 -0.31099474 -0.17513785 0.3039585 0.3401099 -0.13141018 -0.3771769 -0.14615336 0.0038932017 -0.07870591
291 -0.0038115121 0.37473956 0.19215113 -0.83960587 0.10120018 -0.33165997 0.09033111 -0.24249914 -0.3634287 -0.0094423825 -0.027295325 0.4123419 0.103350714 -0.09850421 0.50475067 0.824634 -0.4386732 0.2252948 0.824443 0.41353932 -0.02253683 -0.10460138 -0.20078702 -0.62964445 -0.7940718 0.69253206 0.09177367 0.84889853 0.37724495 0.6192721 0.24562858 -0.55455714 0.5975805 -0.5286578 0.45824414 0.10334419 -0.8456969 -0.7021709 -0.65035653 0.010897493 0.030872794 0.45693618 0.07806366 -0.2791048 -0.055945158 -0.9715404 -0.3378873 0.1829515 -0.28075075 0.64544445 -0.7166669 0.24694383 0.9414649 0.1609732 -0.12970679 -0.5833354 -0.44862896 0.82306147 -0.07236782 -0.90680397 -0.36777124 -0.45416203 -0.49533108 -1.0018959
74 1.1717658 -0.024053728 -0.17039344 -0.13563074 0.4151546 0.13552211 -0.10261729 0.6816024 -0.39459538 -0.15330014 0.24972178 0.2635264 -0.17598104 1.0661111 -0.027127413 0.33975533 -0.76053166 0.14129284 0.52443993 0.18860139 0.3882389 0.2644723 -0.1397546 0.2872028 0.035419986 0.47796953 0.3548189 -0.10596415 0.69833744 0.3090339 0.21388246 0.98559994 0.13105479 0.17343338 0.36692035 -0.13150273 -0.47148192 -0.068165556 -0.9014339 0.37954468 0.6535721 0.52230954 0.19288826 -0.48454815 0.51278937 -0.5814042 -0.83488107 0.4778868 -1.2008722 0.27863526 0.04818593 0.28728825 0.72358614 -0.84465307 -0.32477403 0.56789076 -0.7013165 0.4304013 0.0913314 -0.41218707 0.01147793 -1.2029009 -0.5290946 -0.14096852
278 0.4198597 0.34718966 0.18808343 0.70252055 0.17726822 -0.1080449 -0.46620566 -0.084727794 0.28465673 0.3702604 1.1959333 1.2068979 -0.45332137 -0.101986036 0.070340484 -0.004389587 -0.491483 -0.009102746 0.47937542 0.60704446 -0.5261476 0.12548386 0.13162048 -0.91477644 -0.64486516 0.20007627 0.030031996 0.83256906 0.24723113 0.41236615 0.45184004 0.99638104 0.37928936 0.40945154 0.16806732 -0.022787023 -0.28840193 -0.62749034 -0.11117356 0.11211329 -0.5478831 -0.21831933 0.15731859 0.049594257 0.7237458 -1.1663677 -1.1566236 0.42731172 -0.6872338 0.20475052 -0.40092018 -0.90289867 0.41515836 0.2568893 -0.36339384 0.09808911 -0.5640897 0.21411721 0.009761788 0.09732131 0.3108277 -0.34333378 -0.38989896 -0.2596275
42 0.36566004 0.62787205 0.6736232 0.06524517 -0.27681994 -0.97240585 -0.50386876 -0.60083634 -0.28465262 0.33817968 0.70098144 0.2798274 -0.17639527 1.214918 0.04469632 -0.22251472 0.31810364 -0.35755876 0.15561755 -0.51735765 0.5721569 0.5642636 -0.8569677 -0.5036466 0.43499166 0.5928 -0.0005034146 0.862224 0.2763996 0.79212326 1.1575894 0.21736869 0.6448585 -0.1965628 -0.15409453 0.4398784 -0.3084356 -1.0879661 -0.20469159 0.36955687 0.48015305 0.06741967 -0.5340717 -0.8600063 0.80460376 -0.6766789 -0.56993973 0.70802325 -0.01955481 0.7557643 0.30995882 0.38427433 0.22253442 -0.5870943 -0.05125419 -0.099170186 -0.08558054 0.54845834 -0.098817416 -0.04943578 -0.25562474 -0.7524979 0.23074283 -0.9642613
299 1.014188 -0.6489465 0.3586469 -0.42402256 0.34833077 -1.0015051 0.7261226 -0.23004268 0.07381099 0.6641465 0.9288599 -0.2419431 0.15451068 0.18477486 0.5132615 0.22008976 0.40835518 -0.3341869 0.9094202 -0.23649117 -0.40076968 0.2536066 -0.5690616 0.7703891 -0.025911095 -0.06716002 0.37170377 0.2856459 0.9038654 0.08157908 0.42368862 0.7633263 0.8128804 0.123684034 0.46797824 0.75761133 -0.011799957 -0.39216632 0.07973736 0.42702523 0.4051398 0.05134773 -0.25907603 0.5410787 0.024042385 -0.6215747 -1.1210811 0.28377682 -0.3609559 0.55287933 -0.41727504 -0.6195754 0.9995706 0.02404746 -0.48372778 -0.5482 -0.67986625 -0.035647493 -0.18841162 -0.23284179 -0.06153766 -0.08475671 0.024858836 -1.0723006
195 0.2562851 0.16078746 -0.087788686 -0.15868503 0.45493406 -0.6073355 -0.06528633 0.09793642 -0.13090089 0.26426876 0.47428706 -0.21459842 -0.034765743 0.6507413 0.19444941 -0.20916285 0.35005468 -0.62861305 1.3038682 0.21545485 1.08408 0.026247486 0.45512643 -0.5919418 -0.7482926 -0.10957029 0.6016692 -0.57782245 0.29326847 -0.23650466 0.40130183 0.40517086 -0.017648615 0.020969773 0.18981913 -0.34069768 -0.30482334 -1.1365027 -0.5907555 0.5844447 -0.30964616 -0.3678708 -0.046633318 -0.5708803 -0.014937413 -0.6370317 -0.64285547 0.011227051 -0.687616 0.57838243 0.39522222 -0.0849592 0.43372265 -0.082592994 -1.0210607 -0.4676388 -0.45943874 0.7449039 -0.7016355 0.21359049 -0.3283827 0.04985758 0.03439095 -1.0863814
233 -0.031589225 -0.28201297 0.5332594 -0.19765435 0.023411455 -0.33585262 -0.006874909 -0.18116884 0.09178404 -0.4949329 0.3585044 0.13762178 -0.9609975 0.6228618 0.14594704 0.21473587 -0.16379066 -1.1208518 1.3902398 -0.08917722 0.20447886 1.0154377 -0.7588508 0.021350866 0.16458009 0.58551794 0.68925744 1.1235898 0.05628279 0.28035447 0.7029398 -0.18986426 1.3199515 0.072690785 0.7719245 0.3999002 -0.016536832 0.00039516162 -0.87749857 0.53997505 -0.33270508 0.82351977 0.07420638 -0.1064493 0.5480681 -0.14236937 -1.1752768 -0.116226405 -0.7238001 0.1809341 -0.5371001 0.38063943 0.52078056 -0.34370467 0.18446836 -0.7841669 -0.920402 0.22041771 -1.0123256 0.02098249 0.13794155 -0.87152034 -0.12481435 0.15215729
305 1.1519475 0.23419757 0.6968475 0.36130965 0.21549365 0.42234573 -0.6171785 -0.31837988 0.5321235 0.11183859 0.5599983 0.095855646 -0.00338237 0.36251637 0.032910567 0.4122718 -0.7428056 0.07667152 1.0483341 0.3500215 -0.12441052 -0.2552062 0.4969301 -0.7267299 -0.040400345 0.405423 -0.2539109 -0.5157345 0.65017784 -0.31662902 1.2298396 -0.053985745 0.7072773 -0.33763972 0.101782046 -0.235862 -0.58591664 -0.67404735 -0.6573088 0.49592462 -0.40832394 -0.12964761 0.18892998 -0.391951 0.9765796 0.0057580327 -0.50917804 0.4202586 -0.6418335 0.25924027 -0.81246823 0.043548625 1.6216663 0.1888168 0.37642878 0.1066092 0.6851874 0.71508163 0.20691308 0.36119413 -0.8374237 -1.0693249 0.24049868 -0.609066
157 0.8833684 0.45811793 -0.393729 0.22408698 -0.3621222 0.40646446 -0.005757546 0.43842933 -0.39637664 -0.021708883 1.2249985 0.085518904 -0.32293537 0.5790454 1.0686687 0.17444165 0.07945652 -0.06298796 0.4145762 0.12271542 0.82709616 0.2044607 -0.6427302 -0.6956003 -0.30166242 0.48613068 0.38931784 -0.30203024 0.93056446 -0.24922986 1.3972327 0.23371561 1.0487576 -0.3346659 1.2047518 0.23586167 0.088753834 -0.29467127 0.29877213 0.22572583 -0.0844213 -0.15341231 -0.16003683 0.09036754 0.31331664 -0.80404407 -0.67577535 0.39228445 0.27191532 -0.5134266 0.33851913 -0.19641802 1.0167956 0.4123533 -0.3421122 0.19782631 0.30750987 0.47570816 -0.29341504 0.17363518 -0.6053792 -0.011900562 -0.5261267 -0.2976023
124 -0.25765094 0.9283481 -0.19739725 0.37718236 -0.20856267 -0.80157393 0.006301468 -0.20803195 -0.20199215 -0.34016258 0.38891172 0.71675694 0.5975353 1.2651467 0.20933144 0.1906489 0.16977274 -0.38197425 0.4777462 0.97957516 -0.12478009 0.06473246 0.24076556 0.14685288 -0.3107004 0.25124305 0.64791405 -0.2728604 0.482659 0.13950126 1.2594209 -0.2764224 0.475279 -0.42786923 0.64222074 -0.25034523 -1.0415245 -0.38384554 -0.18777819 0.17623569 -0.12652504 -0.39203382 -0.22216193 -0.21072352 0.45406595 -0.12371116 -0.3416578 0.5356372 -0.73935264 0.59877366 -1.0140147 -1.0278542 0.9124542 -0.15794764 -0.14849307 -0.35506362 -0.25669274 0.5468757 -0.51144373 -0.5149422 0.58392936 0.50792724 0.05907309 0.35229045
242 0.6290565 0.6421631 -0.47472665 -0.20580488 1.2083962 -0.5469453 0.29361817 0.199273 -0.5181458 -0.33657423 1.04146 0.08011482 0.20000497 0.78943783 0.4789792 0.4346377 0.14204516 -0.23739849 0.47571585 -0.2983407 -0.5766028 -0.022539277 0.37342873 -0.5741458 -0.2219599 -0.8789676 -0.013447132 -0.019164706 -0.034379456 0.7380746 0.76499283 0.018371407 -0.043749277 0.35059524 -0.0019106724 -0.05410041 -0.033203047 -0.06989686 0.20837282 0.39526364 0.0676826 0.03281692 0.500531 -0.4529693 0.6341075 -0.4648825 -0.5406656 -0.080988534 0.002166931 0.78511816 -0.8359816 0.08008651 0.98575675 -0.32250166 0.029156253 -0.019457236 0.27516782 0.32793874 -0.18117273 -0.4522649 0.49763414 -0.8058915 0.010774721 -0.8021855
173 1.0961347 0.98744184 -0.19337188 0.22512448 0.07592005 -0.71840644 0.23859659 0.11605302 0.03752987 0.26461965 0.23559536 -0.14871268 -0.9368008 0.32706013 0.44035825 0.05362816 0.96544063 -0.44162047 1.2073611 -0.11232601 -0.33010483 0.34251148 -0.42775297 -0.02933097 0.28429392 0.6833089 0.37309626 0.47548074 0.44251353 -0.13136108 1.112992 0.64299464 -0.33981752 0.032249168 0.76586705 0.1373615 -0.9246972 -0.030256815 -0.80109507 0.21328501 -0.54985625 -0.40365273 0.20072716 -1.2835819 0.20751883 -0.41090477 -1.0735744 0.25395384 -0.32219344 0.46308967 0.07744503 -0.12634051 1.2776326 -0.97886056 0.034482434 -0.76572555 0.11598052 -0.34985676 -0.117948204 -0.568728 -0.18201749 -0.2986176 0.26947495 0.35524926
65 -0.25133622 0.32363367 -0.11710796 -0.31722656 -0.09938656 -0.41313425 -0.31612247 -0.53210276 -0.40968648 -0.48972827 0.2569221 -0.13996471 -0.72787637 0.93904054 -0.1356148 0.027112575 -0.30622646 0.158116 0.4732766 -0.056650113 -0.6699049 0.25647816 0.005693739 -0.17301667 0.12118094 -0.055723004 0.31075582 -0.3286321 0.57033885 0.22059874 0.1695199 0.24250905 0.22603573 -1.028774 -0.3268343 0.44241646 -0.01267573 -0.36217088 -0.22070277 0.42650092 -0.2910263 -0.19553788 0.31542206 -0.38232607 0.032117072 -0.28632963 -1.7397146 0.70499825 0.23103409 -0.267763 -0.077528164 -0.14902559 1.0487463 0.2557719 -0.45181125 -0.07942161 -0.45944917 0.2510367 0.45183453 -0.042963862 -0.1417862 -0.014561665 0.016450787 -0.22985753
25 0.66210914 0.7290005 0.71789813 0.08974848 0.17116937 -8.157964e-05 -0.5763715 0.14223751 -0.16702025 0.42708108 -0.009230376 0.958989 -0.24436715 1.0118259 0.4276798 -0.0058075893 -0.27332819 0.3179826 1.2722855 -0.7986118 -0.4609779 0.5198518 0.35501704 0.054731876 0.19909807 -0.34065014 0.5493794 -0.22794046 0.10099289 -0.15948227 0.9804057 0.30579117 0.5397333 -0.33634764 0.63581884 0.27891207 -0.71944976 0.17222351 -0.44490832 0.15240806 0.13127346 0.25001952 -0.09237741 -0.5965632 0.63368857 -0.6005421 -0.27126658 0.6230067 -0.7423967 0.7958388 -0.7413132 -0.011963113 0.15677993 0.19775477 -0.82309055 -0.66781443 -0.47942886 -0.43027934 0.23660362 0.09490787 -0.39268523 0.40399653 -0.5351848 -1.1403292
190 0.22191495 0.102370314 0.6670422 0.55163646 0.26060686 -0.3555633 -0.7498186 0.73369414 0.10440524 0.41619775 1.5008811 1.1162452 -0.6789542 -0.058070272 -0.22433566 -0.08890595 0.05718512 0.09457341 0.50848174 0.6430613 -0.60895306 0.087892465 -0.112379774 -0.64199626 -0.4425607 0.48820472 0.48559076 0.41653785 -0.118812434 0.3829817 -0.042585656 0.39980337 0.5151278 0.12580942 0.4329768 -0.014597181 0.05359798 -0.35744724 -0.36242336 0.124736406 -0.15644453 0.27280867 -0.20472595 0.09566474 0.6684386 -0.8998823 -1.0140175 0.40614447 -0.7544701 0.1655033 -0.016951252 -1.1467332 0.6347643 -0.06681307 -0.42690426 0.10457308 -0.11856632 0.44035995 -0.06856967 -0.31717384 0.42229813 0.14570461 -0.52949697 -0.5652043
235 0.016425814 0.17496926 -0.089743696 0.27891064 -0.4163553 -0.6768984 0.08767041 0.642691 -0.843344 -0.0013363957 0.5032401 0.25640318 0.2216119 0.5849358 -0.110352166 0.75950307 -0.21565187 -0.004796007 0.52116245 0.120014295 -0.1756119 0.6503833 0.24795824 0.15722282 -0.5196883 0.41497436 0.72039604 -0.06921703 0.33084837 0.20998564 0.42359236 0.13619389 0.3815009 -0.18633558 0.56748194 0.6353723 0.4700701 -0.5943734 -0.19472493 0.7318314 -0.6119777 0.7437863 0.3955555 -0.5155719 0.6971263 0.23633456 -0.4793738 0.21412149 -0.44609568 -0.20852083 0.13087872 0.35956845 0.82447237 0.20221087 0.25015998 -0.6729921 0.35375 -0.5060445 -0.6296327 -0.37854132 0.24052416 0.29876095 0.55970126 -1.109293
8 0.45484796 -0.19268408 -0.24304588 0.37251484 -0.04655596 -0.58008826 0.075405195 0.15138732 0.28503782 -0.299629 0.29663506 0.4786972 -0.83260876 0.22308563 0.19115289 0.8642122 0.13081844 -0.21249408 1.0536176 -0.19913541 -0.007686362 0.787378 -0.052824706 -1.1079732 0.050427087 0.37333354 -0.00089145364 0.20624068 1.2936622 0.17343089 0.5036933 0.5378802 0.563849 -0.71463466 0.852227 -0.21286498 -0.30489373 -0.5619149 -0.2567626 0.68329656 0.45649034 0.064296976 -0.276307 0.21809252 0.48743716 -0.7427734 -0.48374116 -0.077238336 0.69339037 0.28225347 -0.08632985 -0.37620357 0.7093973 0.44677353 -0.069301195 0.02375446 0.64826673 0.6103794 -0.5399595 -0.58192146 0.65776306 -0.85995865 0.86632 -0.14904654
79 -0.096038215 0.36444268 0.32721835 0.39191893 0.5543489 -0.8516409 0.20878765 0.44507483 0.3663739 -0.52804947 1.1497445 0.16114321 -0.86191106 1.230861 -0.020600688 0.2013046 -0.5497598 -0.48475522 1.39589 -0.14024195 1.0604684 -0.10043478 -0.009280191 0.15800118 -0.41299787 0.07500016 0.65797985 0.030638812 0.4487083 -0.078726836 0.97033507 0.273132 -0.0156092765 0.38892904 0.68489474 0.65337545 0.070804596 -0.49912438 0.04989322 0.46540275 0.28526607 0.6852983 0.5229304 0.115056045 0.39339402 -0.19348562 -0.3957682 0.6609995 0.37982422 0.2428666 -0.47439495 -0.66754884 0.24503666 0.25567484 0.75705314 0.0350354 -0.4383963 0.22554049 0.50706303 0.1476593 -0.03381421 -0.7006436 -0.60351175 -0.50725114
146 1.3328376 -0.27379125 0.9202659 0.032143984 0.07080359 -0.5068969 0.325208 0.02379103 -0.44923368 -0.37254533 0.047056932 0.46859506 -0.49917805 0.38380232 0.19032127 0.45329165 -0.06700348 -0.3071757 0.89680725 0.05646906 0.34531552 0.35497913 1.0592785 -0.12240121 -0.011014193 0.19565171 0.55937195 0.43148905 -0.3267389 0.30648315 0.7177933 0.39663857 0.31186524 -0.6247418 -0.28735435 -0.35056216 0.28856185 -0.98647314 0.2327757 -0.38012087 0.2036056 0.5820814 -0.23505946 -0.9026995 0.5476743 -0.2927131 -0.7091489 0.48668483 0.27532232 0.6488466 -0.12877262 -0.4119446 1.120824 0.075308 -0.077803135 -0.5369423 -0.28924805 0.2166182 -0.45624065 0.41366568 0.3017475 -0.44583908 -0.6578428 0.11803378
47 -0.02981934 0.44951484 -0.3058887 0.163843 -0.24213538 -0.49926567 -0.29575714 -0.20124732 -0.079564214 -0.66649085 0.6241931 0.26366678 -0.35703987 0.7612979 0.15929611 0.20056146 0.02801795 0.06688602 0.29357105 0.31998718 -0.50913364 0.83627295 0.47526747 -0.049098168 -0.35065573 0.20886658 0.23173068 -0.31606072 0.752317 -0.37583107 -0.22979067 -0.13296434 0.25099578 -0.33049932 -0.20729552 0.7849382 -0.14195055 -0.39224234 0.08278311 0.30444562 -0.3681854 0.59033656 0.62518424 -0.3697967 0.5020623 -0.28218508 -0.74569 0.38008356 -0.20263383 -0.44862825 0.40281 0.108198695 1.1952124 -0.07966207 -0.037054792 -0.5680498 -0.4480938 -0.41436845 -0.20479056 0.10617127 -0.18330595 -0.3578291 0.30195653 -0.70507646
151 -0.04591184 -0.17285003 0.34339 -0.98123974 -0.5177115 -1.2041885 -0.052119885 -0.11296488 -0.41290024 -0.6115798 0.30969265 -0.12409291 0.16296574 0.25434345 -0.07591567 0.32042345 -0.5127299 0.22199097 0.7408228 0.9845754 -0.12224147 0.25901195 -0.36114067 -0.8424204 -0.28285828 0.15352616 0.17281686 0.5708097 0.42203638 0.12204998 0.11158519 -0.03001444 0.41575935 0.14163545 0.5658861 -0.26675224 -0.75357336 -1.3104489 -0.7726986 0.1695193 -0.1076457 0.7421914 0.06929002 -0.22211704 0.3915698 -0.45160496 -0.56361175 -0.0066975993 -0.05233124 0.66360927 -1.0504014 0.01933459 1.1179782 -0.2715065 0.34724957 -0.0978301 0.051756848 0.64379734 0.30486032 -0.097536184 0.3513882 -0.5318892 -0.87603825 -0.88516533
96 0.0099906875 0.840114 0.46004477 0.14710395 -0.21884406 -0.6055036 -0.63726354 -0.017454034 -0.48617882 0.6078474 0.6940164 -0.011345473 -0.31080195 1.1526935 0.09541676 -0.28386652 0.45123205 -0.34332073 0.4833854 -0.07057232 0.7780817 0.9241069 -0.9068314 -0.406114 0.3306632 0.8512846 -0.19614962 0.5739257 0.32008204 0.866661 1.1768297 0.30241334 0.72831804 -0.29508716 -0.46118382 0.4771985 -0.031220878 -0.8916853 -0.27522942 0.0616033 0.29217136 0.26187745 -0.40813002 -0.42620715 0.8868776 -0.73907316 -0.32136872 0.5956065 0.08108613 0.92605585 -0.023594562 0.10916667 0.4507114 -0.63748527 -0.3301731 -0.18928699 -0.135725 0.23651057 0.15850928 -0.08179911 -0.0097831115 -0.7358657 0.25738913 -1.0126332
259 0.7436588 0.29289913 0.9064588 -0.78634846 0.78674304 0.028334185 0.34443137 0.08252417 -0.5047298 0.46287742 0.7767399 0.19329137 0.11842374 0.83061117 0.5327856 0.5034479 0.5080055 0.31044552 0.019195842 0.5578917 -0.32211062 0.82835203 -0.65069586 -0.5661017 -0.098833494 0.065083295 0.77667296 -0.51765007 0.13828832 0.43236044 0.7446596 0.30984026 0.8133857 -0.008568724 -0.10706306 0.17538682 -0.36977717 -1.2436892 -0.1558387 0.87412304 -0.5461439 -0.20172857 0.14440364 -1.0528125 0.45281267 -0.47208506 -0.3921594 0.14167404 -0.95361155 -0.011751637 -0.20993887 -0.5373462 0.69640154 -0.307165 0.22952497 -0.6337136 -0.2110791 -0.036114715 0.21770766 -0.098947056 -0.5603361 0.027971238 -0.6523803 0.22000016
245 1.2491586 0.7308053 -0.54369915 -0.5067692 0.51886857 -0.072446905 0.036928803 -0.12028192 0.52475816 -0.32078904 1.0333625 -0.20240195 0.41830015 0.91617775 -0.31549805 0.67638296 -0.36343545 -0.6619093 1.0575889 -0.084517986 -0.095018506 0.4637282 -0.2957772 -0.50141627 0.5903675 0.15381542 0.14136729 0.20884731 -0.2709577 -0.28931874 -0.101372235 0.76685375 0.69133025 -0.05206021 0.86969274 -0.47711784 0.2707053 -0.671463 -0.9815283 0.5493673 -0.67883426 0.50739086 0.15796728 -0.3100122 0.14471136 -0.8898678 -0.70004463 0.35156608 -0.08910273 0.13140796 -0.14751501 -0.736628 0.9114429 -0.12576766 0.6668701 -0.5617986 -0.0048655765 0.33345374 -0.34290883 0.9957828 0.28264275 -0.13090819 -0.012167692 -0.18223785
140 0.19896297 -0.55281454 0.5784394 0.03981472 -0.13689628 -0.90421605 -0.0676914 0.1583645 0.48969856 0.70217675 0.7108364 0.570164 0.16138095 1.2333654 0.85762095 0.14960138 0.40910244 -0.6050044 1.0365089 -0.29619196 -0.09522249 0.23976845 -0.37638387 -0.45365152 -0.22727554 0.7698123 -0.062590204 -0.38688818 -0.18968162 -0.1599638 0.18365881 -0.47731617 0.11402232 -0.27660304 0.9269278 -0.32901207 -0.37191495 -0.4362767 0.13358471 0.77485806 -0.4893422 -0.13514939 0.124930486 -1.3605452 0.43001336 -0.41819608 -0.9899011 0.19022821 0.5164462 0.33513173 -0.60953873 -0.12022221 1.0812773 0.3050444 0.3068885 0.5119269 -0.023634315 0.03332938 0.20994623 0.3070216 0.2615485 0.14126882 -0.20359464 -0.3040358
191 0.21593486 0.1722458 0.04235664 -0.2161701 0.7564855 -0.63604033 0.094959185 0.21454887 -0.030500995 0.11483358 0.3810741 0.100002125 -0.38105878 0.8529416 0.2511534 -0.3138939 -0.38505328 -0.8091132 1.1336285 0.35015297 0.77627546 0.5264236 -0.03570426 -0.77189016 -0.73736495 -0.2812 0.5754407 -0.60190976 0.14985353 -0.44743034 0.43461472 0.48590368 0.20737098 -0.11650703 -0.0050722705 -0.3805655 -0.21978594 -0.6010421 -0.105789006 0.9065879 -0.18989326 -0.21750766 -0.33373445 -0.71443033 -0.11756524 -0.5638292 -0.28271282 0.418208 -0.40737355 0.6777612 0.4058831 -0.12628214 0.59237814 -0.33412543 -0.70157963 -0.27216867 -0.6330806 1.2230867 -0.78433114 -0.15766633 -0.29245853 0.3139339 0.10010902 -1.2552774
197 0.27389616 0.19476661 0.17785831 -0.31672418 0.14380558 -0.4925086 -0.26913396 0.4546766 -0.22463275 0.22558759 0.49620003 -0.4455056 -0.035993744 0.7755457 0.3121124 -0.14467666 0.17778818 -0.69200855 1.4191462 0.22749652 0.95136124 -0.38716915 0.5583935 -0.84957874 -0.5419699 0.013659813 0.7117734 -0.46648192 0.22192636 0.10606291 0.12494225 0.38879076 -0.0074757556 0.09957988 0.40556717 -0.36251396 -0.17534515 -1.3316033 -0.5251104 0.54269904 -0.33656693 -0.43981835 -0.08464948 -0.46691588 0.16759889 -0.46568003 -0.78718686 0.2119723 -0.81371456 0.48825264 0.35549358 -0.0071379715 0.31592575 -0.014777753 -1.0781678 -0.37349492 -0.32697654 0.58077085 -0.48490688 0.33097 -0.30768663 -0.09049513 0.24628817 -0.9290116
184 0.106110185 0.20744637 -0.4352621 -0.084123835 -0.38743645 0.060714677 -0.52658284 -0.25866926 0.02604054 0.32574192 0.8925309 1.0538671 -0.100026496 0.6528884 0.30133983 -0.40726206 -0.514668 -0.674345 0.9851444 0.6177356 0.043235462 0.13280804 -0.43753514 -0.34626293 -0.049323265 0.049810637 0.3552262 0.45337892 0.3471422 0.42746925 0.9893525 1.1700324 0.2133204 0.65914905 0.7208662 0.38814104 -0.47970137 0.10387614 -0.5050078 0.693013 -0.723288 -0.043345574 0.7102415 -0.74101126 0.04631425 -0.36226416 -0.9467667 0.5770559 -0.0026617083 0.019609133 -1.1010981 0.6938379 0.073014975 0.15080187 -0.46866906 -0.560123 0.44349506 0.76809263 0.15595089 0.40140334 0.26050463 -0.7985456 -0.07594142 -0.46057573
272 0.4935407 0.28524274 0.21974458 -0.13953915 0.13121374 -0.0860187 0.45371503 0.17747614 0.3482485 -0.4211903 -0.049014736 0.66260195 -0.2878713 0.40767235 0.4457003 0.8755974 0.17189491 -0.73311573 0.16300763 0.71042347 0.3000866 -0.44646263 -0.70012695 -0.12999283 -0.05307276 -0.40155444 -0.11821721 0.18270385 0.30093616 -0.04520503 0.68285346 0.33384037 -0.10730327 -0.27033126 0.6474291 0.410696 0.5967681 -1.2118688 -0.3389669 1.1506679 -0.03458539 0.59665614 -0.102142654 -0.21653728 1.2338096 0.041959558 -0.9467153 1.1113096 -0.29450768 0.14565933 -0.9782008 -0.75145274 0.42284772 -0.7510925 -0.3556218 -0.4709315 0.064707175 0.6457354 -0.39505437 -0.3208596 -0.39277014 -0.699826 0.048740525 -0.50198984
262 0.7517316 0.117829904 0.18843968 0.43107867 -0.23685683 -1.0405661 -0.0026903618 0.27996778 -0.33309573 -0.7173075 0.8082 0.34168962 0.042999886 0.5673526 1.3898526 0.78387505 -0.7161618 0.7849464 1.095713 0.19970538 -0.18445493 0.034231752 -0.2785567 -0.14689596 0.015272832 0.5136226 0.1555329 -0.46900705 0.49926895 -0.15800229 0.6767863 -0.16893345 0.8911107 0.45083374 -0.20191436 -0.5280781 0.25469804 -0.30348018 0.2257042 0.9040324 -0.35968024 0.2938672 -0.37653968 0.059568014 0.33526334 -0.093772195 -0.75645536 0.8388426 0.24898264 0.38599098 -0.5611906 -0.3392397 -0.11553408 -0.3706456 -1.050794 -0.6130784 -0.041234214 -0.09281271 0.40803453 -0.5015638 0.4279696 -0.5176522 -0.5816658 -0.549896
103 0.7941501 0.68591315 0.989137 -0.48402902 0.71973217 -0.0278896 0.07589611 0.009979602 -0.450964 0.45723712 1.05521 -0.39826936 -0.05857315 0.80726916 0.7584485 0.5220484 0.4046162 0.27613416 0.011973108 0.4317821 -0.18135558 0.6032079 -0.63143575 -0.47475833 0.3046963 0.027000252 0.89791733 -0.7215 0.32280225 0.20405285 0.3434905 -0.0961606 0.6445631 -0.18048035 -0.056373283 0.11710737 -0.03695503 -1.3469672 -0.35532218 0.66949546 -0.5644296 -0.078994796 0.02859617 -1.0470985 0.6119345 -0.40732583 -0.35919422 0.09635295 -0.9221455 0.22676338 -0.4119504 -0.24575011 0.917246 -0.39592072 0.32853413 -0.4489286 -0.109078065 0.11210285 0.07009031 -0.4826689 -0.47529846 0.25696144 -0.9762839 0.037349325
199 0.27751163 -0.07451155 0.32927817 -0.4682215 0.026893621 -0.34820876 -0.43071368 0.6382786 -0.06661468 0.20740445 0.5834867 -0.5544087 0.07350122 0.7598716 0.58600056 -0.069136314 0.082895055 -0.60681254 1.3893679 0.33983862 0.74956053 -0.5360578 0.65673405 -1.0488586 -0.28642526 0.17064762 0.6017183 -0.44319156 0.31547594 0.20183395 -0.08310235 0.6922887 0.24296793 0.16498546 0.26033568 -0.27428314 -0.18267336 -1.2507411 -0.4461807 0.3857874 -0.48067206 -0.27442986 -0.15519153 -0.43855536 0.2901537 -0.63442504 -0.8538715 0.23247483 -0.6834827 0.44673926 0.4326306 0.35337907 0.5318922 0.011468713 -1.0519109 -0.49399573 -0.17318676 0.5268913 -0.19108357 0.31456003 -0.25994965 -0.05657674 0.34954393 -0.78349394
248 0.51561767 0.6084727 0.86308414 0.20352192 -0.13298088 0.03304957 -0.43765 0.18761851 -0.17164478 0.45455244 0.006497423 0.7903667 -0.6848753 1.1196206 0.64043427 0.22396092 -0.2366517 0.2799093 1.2412707 -0.3197747 -0.40982342 0.6153098 0.3161597 0.004966556 0.37068292 -0.46335977 0.5581344 -0.3611618 0.3615146 0.30763143 0.8896882 0.27083936 0.21835047 -0.06086427 1.0385247 0.2643157 -0.9076996 -0.17017661 -0.23138306 0.09717924 0.43426615 -0.031145627 -0.32721025 -0.4266404 0.70704764 -0.3758296 -0.38850498 0.5186842 -0.55042255 0.79976964 -0.5695131 0.31524643 0.21351528 0.5893224 -0.8980091 -0.6745666 -0.49589685 -0.44638327 0.26538017 0.030626066 -0.4008607 0.37204382 -0.5780069 -0.8820934
165 1.0341425 0.13994348 -0.2508909 0.104478285 0.3556194 0.2589245 -0.12094962 0.8167585 -0.29272625 -0.13425608 0.43911248 0.115488105 -0.075423315 0.8892567 -0.1460138 0.37946978 -0.90192497 0.27188334 0.6529007 0.1543947 0.3257135 0.39324734 -0.28700644 0.3023562 -0.15546016 0.6910647 0.29888627 -0.30862552 0.49859366 0.43302834 0.20518777 0.88610315 -0.1347351 0.04775655 0.29020625 -0.07789554 -0.4651308 -0.30219278 -0.88406944 0.6231153 0.6776553 0.5955697 0.006706442 -0.66910595 0.62873244 -0.7346786 -0.87201995 0.3435228 -0.8077145 0.27806067 0.21233782 0.62257564 0.63947964 -0.58696437 -0.22408552 0.55216986 -0.48118058 0.43013462 -0.004837808 -0.43631107 0.018269118 -1.0017436 -0.72481465 0.06699167
275 0.27539143 1.0244018 0.9086496 0.28580353 0.4809911 -1.1416242 -0.4549528 -0.5101157 -0.09307398 -0.15961531 0.44602048 0.41946036 -0.56729984 0.6267772 0.8754365 0.77693754 0.32471693 -0.62470776 1.5017704 0.8439005 0.14124459 -0.29165274 0.17071223 -0.14799373 0.35744384 0.61702645 0.6859446 0.70703167 -0.07827085 0.6840428 0.57484806 0.5036187 0.86367035 -0.40403545 -0.22266509 0.5345446 0.32865995 -0.7178936 -0.9958523 0.7930565 -0.38035604 -0.7922031 0.93220335 -0.57594526 0.25029373 -0.07077131 0.046413682 -0.06985414 0.40532634 -0.19441403 -1.1095868 -0.1723653 0.89374614 -0.68849415 0.35707563 -0.47836697 -0.38848606 0.63378584 -0.548306 0.008297731 -0.30405504 0.31286076 0.32620838 -0.7674554
207 0.6571911 -0.13844562 -0.015897864 -0.22291294 0.18278807 -0.61918646 -0.043495893 0.46996656 0.14243458 -0.6848573 0.17637305 0.10355871 -0.21934219 1.3904403 0.73478615 0.19617753 0.3694147 -0.667871 0.4081491 -0.06362876 0.3713901 0.21787022 -0.17342587 -0.17397925 -0.007788667 0.84943676 -0.022079252 -0.14517598 0.45892945 0.668146 0.08713736 0.23360454 0.401 0.47155008 0.16708435 0.12253523 -0.09270909 -0.19496633 -0.4352686 -0.11356966 -0.5337329 0.09119691 -0.6904506 0.3131241 1.081859 -0.8272722 -1.081181 0.09997488 -0.6720535 -0.16012205 -0.90752316 -0.42033932 1.1854085 0.81915164 -0.07038016 -1.1737849 0.42901093 0.4076503 0.522509 -0.40643564 -0.08140025 -0.45668378 -0.5445892 0.107007906
186 -0.22426462 -0.20747371 0.3387105 -0.040757354 0.23721714 -0.9297169 -0.28964427 0.43674636 0.45096746 0.4593323 1.2302246 0.7451884 0.70925117 0.5483163 0.96649444 0.19256443 -0.14411436 -0.3685014 0.97001034 -0.45951143 -0.22496247 0.71210414 -0.29881993 -0.25195834 0.16951524 0.91884726 0.41511145 -0.44489983 -0.12054521 -0.07115632 0.259601 -0.44147453 0.28702602 -0.36973956 0.3937713 0.044963375 -0.14466093 -0.7334085 -0.029234532 0.30400354 -0.43999535 -0.6249307 -0.19635369 -1.1056852 0.28170678 -0.49705377 -0.5925542 0.2833749 0.47983631 0.64762884 -0.8239458 0.04856889 0.84718853 0.80931187 0.40763816 -0.10659932 -0.6375253 0.488867 -0.03484661 0.40035328 0.5288775 -0.47191885 -0.030493544 -0.55834955
23 0.5555519 1.0518795 -0.61893773 0.09774784 0.17139049 -0.39284727 -0.4102852 0.20517613 -0.3099244 0.83184105 1.3350611 -0.13584316 -0.40321878 1.5046481 -0.20448697 -0.43281797 -0.85699195 0.08296159 1.2339529 0.023024742 -0.030276231 -0.23674949 -0.07834777 -0.37933442 0.34732434 0.56169677 0.52812505 0.33548772 0.0076961215 -0.03160818 0.84263057 -0.13893838 0.44472176 -0.13826741 -0.16206713 0.4488238 0.16461153 -0.33505377 -0.34062064 0.61812764 -0.7624403 -0.0052569755 -0.6839571 0.6275209 0.27505323 0.3513742 -0.2880652 0.46730235 -0.42477337 0.5569128 -0.9335284 0.107509665 1.4593334 0.2957064 0.07563488 -1.0866832 -0.628479 0.67504776 -0.80532205 -0.48748106 0.019930271 -0.7155075 -0.6358147 -0.39075968
222 0.5633632 -0.5321062 -0.5378041 0.5993914 0.6065694 -0.8522151 -0.076393604 0.4819937 -0.7579315 -0.7003609 0.7926256 -0.50899434 0.012419388 0.8084305 1.4270651 0.5828808 0.29096568 0.22797026 0.8668495 0.52658117 -0.05534402 0.47522056 -0.72435284 -0.31536895 -0.022312624 0.90581155 0.030628348 0.076071315 -0.3241826 0.39897037 0.49247095 0.5130558 -0.078757234 -0.80369365 0.103329085 0.62696767 -0.100768715 -0.8334079 -1.3333589 -0.13102782 -0.24322076 0.013191639 0.48390302 -0.4300047 0.29707956 -0.32803786 -0.010275777 -0.18475485 -0.5828824 0.6503018 -0.13674961 -0.7837761 1.3484459 -0.59524375 -0.90524966 -0.40806773 -0.1905161 0.23550156 0.18592402 0.21024543 0.6927022 -0.19282763 -0.28090212 -0.7656063
270 0.4105767 0.6432361 0.40311065 0.35345143 -0.3955644 -0.42623693 -0.63602245 -0.60258234 0.09134369 -0.6411634 1.2532632 -0.2054781 0.3396946 0.707573 -0.012381748 -0.25595993 -0.60571474 -0.5710404 1.5282793 0.30472532 -0.1480452 -0.2857909 -0.08445098 -0.3405135 0.12753733 0.06855846 0.82232815 -0.4240126 -0.121218905 0.35794377 0.62795645 0.46081516 0.92438054 -0.43557495 0.0897861 0.37256494 -0.09759963 -0.4382206 0.1260524 1.2200302 0.3776573 0.19050148 -0.15283522 -0.16034935 0.30326426 -1.0555758 -0.29567376 -0.8676121 -0.063127175 0.778276 -0.20303993 0.40906638 0.5025685 -0.5882507 -0.15975621 0.10527202 -0.43773547 -0.19526038 -0.15889126 -0.16117588 0.64200485 0.10518233 -0.6910507 0.041427944
36 -0.045747306 0.29775852 -0.48462477 -0.018029407 -0.09622441 -0.39002287 0.036835123 -0.22608763 0.011353368 -0.85009784 0.7637983 0.2822162 -0.48016497 0.50998193 0.32974383 0.09731827 -0.14287892 0.116582416 0.4272845 0.41240978 -0.18217485 0.5905727 0.43463853 -0.03927323 -0.095421836 0.154283 -0.035392385 -0.14054374 0.6513104 -0.21557508 -0.401977 -0.23773165 0.52822536 -0.42262194 0.070912175 0.5578039 -0.032547507 -0.49109352 0.30343512 0.49980912 -0.19839995 0.50171447 0.652149 -0.57910246 0.7535483 -0.4554117 -0.6351257 0.6445871 -0.5739481 -0.32299206 0.340518 0.26642254 1.1147116 0.2716978 -0.05202703 -0.59537154 -0.54960847 -0.45209816 -0.07809885 0.0035950975 -0.17689699 -0.20545638 0.6216272 -0.5914706
254 0.2095082 0.3033229 -0.24855866 0.6269077 -0.33829644 -0.19559969 -0.5261925 -0.27979073 -0.28937343 0.3937861 0.7308503 1.3443521 -0.22778621 0.3313014 0.049320355 0.104639314 -1.0210872 -0.73560643 0.52321094 0.45661643 0.17450196 0.13346253 -0.29931846 -0.8137489 -0.47792807 0.18250129 0.2944183 0.546256 0.20851883 0.531065 0.87975234 1.0258379 0.053805914 0.6507407 0.2567826 0.2562079 -0.26444668 -0.19176294 -0.2973367 0.7069713 -0.8488531 -0.16496004 0.618575 -0.13851582 0.3893709 -1.0048901 -1.1519533 0.14804175 -0.08880732 0.27705404 -1.1783504 0.041826375 0.14525296 0.2562962 -0.5329398 -0.26990807 -0.19755626 0.44031572 -0.2578845 0.35919 0.2785319 -0.42783877 0.14482434 -0.3260278
289 0.0850183 0.16152312 0.48189777 0.8688883 0.4285777 -0.35212037 -0.6484792 0.2547529 0.045289088 0.2702332 1.4204724 1.1888283 -0.54534507 -0.074272946 -0.25257906 0.02110955 -0.17099372 -0.0070400513 0.3817057 0.6263317 -0.50609404 -0.21157143 -0.21612555 -0.87933916 -0.5296595 0.4850579 0.24929361 0.6366573 -0.0043451604 0.3494826 0.30732137 0.51945573 0.56408244 0.42480472 0.17380612 -0.27779773 0.14106582 -0.40193698 -0.2968867 0.2534766 -0.16404681 0.048772044 -0.0015348225 -0.11761502 0.6825718 -1.1563531 -1.2565181 0.3927951 -0.75977707 0.30176625 0.057160776 -1.0093429 0.5083917 -0.029297592 -0.07751192 0.08973122 -0.22333397 0.3980753 -0.15082312 -0.047878187 0.3475681 0.044056214 -0.45584613 -0.6048539
167 0.41621894 0.5541032 -0.17858197 -0.30888954 -0.2715593 -0.50779486 -0.534569 -0.47086382 0.2644544 0.16117589 0.5143098 0.78118664 -0.46189788 0.774681 0.11449881 0.9841451 -0.29363754 0.7293058 1.1463485 0.58340365 0.28567317 0.43667322 -0.78752136 0.20513211 -0.21367392 0.21990092 0.18506281 -0.32129762 0.45701787 0.20292515 1.2514948 0.58509797 0.96476024 -0.15007493 0.63499343 -0.487258 0.26435035 0.21173155 -0.62103546 0.79121256 0.23205659 0.2635223 -0.41784975 -0.018234001 -0.15744594 -0.18381871 -1.9028888 0.32747364 -0.9168703 0.34401327 0.17689896 0.19723192 0.5403573 -0.5980086 -0.10590694 -1.1255904 -0.066183604 0.5643546 -1.1138995 0.28606814 -0.18298025 0.6793941 -0.9740771 -0.77114385
177 -0.24611811 -0.059283253 0.36439407 0.018084839 0.68424886 0.4945125 -0.75580305 0.12546785 -0.019140532 -0.07721038 0.5046577 0.21866193 0.40189803 0.6983766 0.63136816 -0.115341574 0.26037177 0.47928652 1.2852974 0.07707687 0.5220631 0.19650547 -0.101166606 -0.25670522 -0.23057176 0.04664661 -0.25319573 0.005334715 1.1438293 0.13345267 1.4863045 -0.15530385 -0.0066084974 0.24358071 0.63280374 0.31567478 0.752432 -0.4105904 -0.66498137 0.6513717 -0.16444075 0.3595043 -0.15156673 -0.10954141 0.52249163 -0.35350853 -1.1237072 -0.37533724 -0.43615273 0.3348172 -0.6518431 -0.19026773 1.0508629 0.010924376 -0.53203875 -0.1250026 -0.50718135 -0.50760084 0.021036483 -0.056506258 0.7954834 -0.30507365 0.29955012 0.060481012
239 0.14056842 1.5251247 0.9868698 -0.7701345 0.9947476 -0.48922253 0.03373045 0.41961122 -0.56927 -0.6664825 0.18548276 -0.2655731 -0.70270944 1.7864387 0.42516246 -0.5372208 -0.06423306 0.5721035 1.809916 1.2977496 -0.43439123 0.052089218 -0.17451483 -0.84316814 -0.13461417 -0.33646446 0.16192095 0.9175555 0.039959397 0.77801985 1.177737 0.32678625 0.31788656 -1.0318805 0.5583308 -0.19522376 -0.14762904 0.03893223 -1.3386341 0.17372715 0.31956276 1.0476876 0.48645687 -0.40159065 0.9703007 -0.6085581 -0.04812525 0.15031849 -0.2517479 -0.1454914 0.38450828 0.09082239 0.92617095 -0.5369636 -0.4119166 -0.68917567 -0.5899326 -0.06701394 -0.26735798 -0.022621067 -0.054828703 -0.26563868 -0.28128833 0.43674538
175 -0.11542233 -0.2599432 0.060683414 -0.021600625 0.68074864 0.20198964 -0.9737249 0.066333935 0.1330387 0.12475733 0.29864436 0.28298533 0.3140289 0.61363494 0.6633084 0.10426609 0.32653272 0.39702195 1.0721614 0.10840887 0.19935738 0.014715486 -0.1772231 -0.6174345 -0.31594884 0.24066241 -0.19791044 -0.65472966 1.4139217 0.09066596 1.5648814 0.13850935 0.12092278 0.4020609 0.67762667 0.6463304 0.4966951 -0.6666255 -0.89523387 0.86266226 -0.09800666 0.3537343 -0.10331106 0.034118697 0.38583627 -0.50364333 -0.9667329 -0.048286393 -0.45612332 0.20284684 -0.7301155 -0.17433208 0.9731225 -0.15174335 -0.08285007 -0.19361843 -0.72218794 -0.5270043 0.22276685 -0.03696831 0.90555465 -0.041355185 -0.024462625 -0.06008742
109 0.2348056 0.98136777 0.18937494 -0.63301957 0.27419716 0.36810353 0.4250958 0.02408059 0.1996821 0.5528036 0.3179006 0.57233626 -0.16062094 0.90862715 1.0461478 1.2646934 -0.44244164 -0.07230516 1.1033654 0.16725272 0.06382087 -0.124923415 -0.13383193 0.008759435 -0.5012293 0.9117401 0.22691256 0.6710512 0.15065186 0.3968661 0.16953792 -0.22281158 0.37205514 -0.15088898 0.14837953 -0.10005471 -0.20850037 -0.43420607 -0.17505938 -0.14098065 -0.28181347 0.7065595 0.4052874 -0.40978524 -0.7100305 -0.6236041 -0.8964383 0.012857946 -0.3293204 0.35975075 -0.35333836 -0.35112584 0.72515744 0.34288898 -0.51474226 -0.27266654 0.29284996 0.32544473 -0.33890763 -0.56637955 -0.57679516 -0.49304646 -0.15581605 -0.70493597
7 1.0357668 0.4480221 -0.25666288 0.17475094 0.5983599 0.14583503 -0.22225244 0.56438464 0.42797822 -0.10991658 0.7194052 0.9544758 -0.7670733 0.50932497 1.3199273 -0.0665196 -0.32944098 0.23611365 1.0396565 -0.16605555 -0.19078895 1.0902395 0.10982933 -1.0923269 -0.556724 -0.12361687 0.54118216 -0.23368791 -0.2901266 -0.20268667 1.2544928 0.46897507 0.24380817 -0.42008147 0.7137856 -0.8355202 0.49341714 -0.6825494 -1.18024 -0.049037203 -0.5423441 0.9268206 0.3395218 -0.6813585 0.12413377 -0.36137828 -1.2786632 0.7874418 0.45350802 0.362477 -0.15546273 0.38906297 0.30619273 0.014246294 0.5137493 0.029898115 0.023789747 -0.118272714 0.5725407 -0.94486195 0.36775887 -0.044314537 -0.22493614 -0.24918306
206 0.881342 0.47768542 -0.6875237 -0.0037121135 0.337926 0.0011996266 0.21745706 -0.27514476 -0.41315532 -0.35096517 0.8543321 0.076690264 0.5471721 0.735388 0.22391 0.20256102 0.18037766 -0.30135062 0.972687 -0.24871443 -0.23632179 0.5841659 -0.011146262 -0.09200322 0.5431825 0.49438784 0.37576106 0.08331377 0.40662783 -0.51754385 0.04828056 0.47202966 0.71416426 -0.16467963 0.6400129 -0.73545206 0.32618976 -0.2766321 -1.3910792 0.9115102 -0.2223509 0.9198685 0.2707457 -0.36595035 0.009998391 -0.89290196 -0.3615432 0.49031854 0.038944017 0.42368287 -0.9323752 -0.6386627 0.80432445 -0.20640351 0.22447129 -0.28621432 0.12529449 0.5100683 -0.7983201 0.76372576 -0.18853946 0.25484115 -0.18149717 -0.10992757
81 0.20794933 0.65581197 -0.31842503 0.34065396 -0.7099058 -0.56929964 0.041690595 -0.35952184 -0.051342282 0.39723068 0.5560892 0.80931914 -0.40186208 0.2927156 0.85361236 0.40842256 1.2990248 0.36652863 1.94707 0.20868897 0.11695855 0.08531216 -0.23731704 -0.34434617 -0.57082075 -0.9985651 0.29017678 0.83133 0.0064634043 0.13203639 1.229069 0.1581431 1.0367124 0.20312582 -0.105971694 0.48113278 -0.21357296 -0.46689624 -0.15582915 1.307242 0.043666705 0.024122693 0.1991268 -0.39959422 0.9615555 -0.9614667 -0.8478873 0.8430099 0.27303758 0.8750035 0.38199186 -0.4135067 0.85984915 0.441984 -0.8611597 -0.66665876 0.4518842 -0.11523369 -0.5151351 -0.3670071 -0.21872188 -0.54988796 -0.43529 -0.32078514
166 0.8199042 -0.33394045 0.51374334 0.44405642 1.1908514 -1.2296354 -0.21370535 -0.5777424 -0.6814893 -0.024176318 1.1874689 0.082765415 -0.44528005 1.5198643 0.5080351 0.6216577 -0.74751014 -0.44003147 1.1638229 0.96418446 -0.46430573 0.6735961 0.7696919 -0.65100414 0.48611644 -0.32586715 1.1135659 0.2015174 0.17568253 0.79296637 1.1852312 -0.70813936 0.35104328 0.2650188 0.71305645 0.46789125 -0.793521 -0.4746923 -1.3506444 0.3158318 -1.2352816 0.9030908 0.29313937 0.60971814 0.39960554 -0.39471826 -0.80720687 -0.007902423 0.001611887 0.5312414 -0.23329104 -0.31202653 0.38021848 0.93451935 0.23626137 -0.3151867 0.7219884 0.76661843 -0.017263196 0.3622138 -0.11687142 0.13207746 -0.38742825 0.95993406
21 -0.029731115 -0.59276706 0.49316195 -0.043938838 -0.22529002 -0.40251988 -0.3201317 -0.16954637 -0.041267287 -0.60808086 0.2804755 -0.23934852 -0.8699335 0.84074336 0.13552964 0.23533684 0.0017459956 -0.98442423 1.2669795 0.1815964 0.11164423 0.79315114 -0.79857427 0.18009076 0.30019173 0.6491068 0.76670086 1.080528 0.18852788 0.11553871 0.66214633 -0.34544381 1.2270061 0.024080202 0.76474845 0.42614347 -0.2831927 0.09884379 -0.9618877 0.7906854 -0.0707802 0.71517557 -0.16090475 -0.28079262 0.7640628 -0.11534775 -0.95514184 -0.1311778 -0.7335611 0.07994881 -0.7791426 0.2548517 0.730065 -0.5901461 -0.19585952 -0.8635414 -0.9916826 0.29262498 -1.1498357 -0.2546836 -0.11622306 -0.7694792 -0.15194222 0.15652704
134 1.0276175 1.0151677 -0.17317794 -0.8221717 0.5598723 -0.6193971 0.4725786 -0.22667633 -0.7785321 -0.62041885 0.170117 0.6879743 -0.6292856 1.4203136 0.44744337 0.94719374 -0.3272041 0.5422279 0.61270225 -0.52542084 0.87071943 -0.24873957 -0.7065985 -0.047325663 -0.59650075 0.53538436 0.6225582 -0.15023498 0.65800637 0.2758966 1.1111803 0.42925897 0.3053244 0.08713294 0.94045097 -0.09126356 0.5304082 -0.5586635 -0.6439373 0.23473269 0.0026682818 -0.40622908 0.49020535 -1.044414 0.87154233 -0.8041451 -0.85004437 0.34821004 0.60715073 0.45254537 -0.38045165 -0.12987205 0.09606191 -0.15765432 -0.5916254 -0.07929203 -0.91752225 -0.4092228 -0.6482646 0.068086006 0.49921298 0.36919576 0.11129736 -0.53814834
0 0.29970786 0.7028855 -0.8041902 0.82437664 0.23384674 0.35882038 -0.36630678 -0.1255701 0.09859328 -0.8946716 0.37771586 1.1364887 0.30673409 0.49227023 -0.13450953 0.5978099 0.26059616 0.24432018 1.1248705 0.51515496 0.9151559 -0.2086635 0.19074295 -1.0197545 1.1207955 0.43446887 0.61476725 -0.24747333 0.2970477 0.77252644 0.7169423 0.069640316 1.6265881 -0.46850663 0.6057679 -0.6811119 -0.73664397 -0.84991103 -0.48393714 -0.5193253 -0.49895778 0.15061174 0.1032263 -1.2486808 0.95368284 -0.7368715 -1.3091738 -0.717707 -0.42986265 0.14295766 -0.6763354 0.4114543 1.0738133 -0.797623 -1.1202648 -1.1544755 0.39501554 -0.033398185 -0.25256032 0.008339549 -0.9091874 0.10552644 -1.0101086 -0.24096267
13 0.55384177 0.4139178 0.092357025 -0.1002058 0.20069754 -0.6051849 -0.012410629 0.08298585 -0.19741441 -0.16724236 0.8405989 0.376366 -0.17591669 0.90610385 0.5233688 0.3682527 -0.17690146 -0.37267956 1.0601707 0.3319522 -0.036142696 0.27232593 0.03895694 -0.36658263 0.05749459 0.3369914 0.3329973 0.020986479 0.42857465 0.26217827 0.6677955 0.33596867 0.4819909 -0.41691467 0.34024635 0.21663733 -0.14124557 -0.49003607 -0.3306016 0.6514504 -0.086135186 0.28786537 0.0680483 -0.6121558 0.5373429 -0.35472402 -0.9457742 0.25276974 -0.1848533 0.26347545 -0.38874528 -0.25019673 0.8149386 -0.016587265 -0.2668165 -0.45941022 -0.13305458 0.19640914 -0.068322755 -0.27212432 0.002957882 -0.3394517 -0.19674927 -0.4932737
213 -0.060124394 -0.0014911487 0.7349925 0.055474944 0.6891038 0.4111411 -0.7661094 0.14204231 -0.1843185 -0.26819947 0.36603582 0.47975868 0.45287088 0.7525907 0.42231575 0.077238865 0.3652016 0.5277724 1.2681735 0.094265774 0.6255074 0.19909848 0.11092742 -0.23699118 -0.051242173 0.026859498 -0.43263006 0.109751955 0.8743493 -0.096175894 1.004394 -0.31698993 0.02950518 -0.08325742 0.532862 0.23366626 0.6540999 -0.6814672 -0.70926994 0.31461525 -0.05443703 0.447738 -0.39648104 -0.03533626 0.4227114 -0.2122486 -1.2992215 -0.29956686 -0.30143705 0.37880328 -0.5976759 -0.045132857 1.1761391 -0.17492564 -0.5493201 -0.11276165 -0.40582752 -0.3177142 -0.16162927 -0.2128364 1.0074593 -0.28789374 0.13754375 -0.113272004
19 0.6101159 0.60762006 -0.19117709 0.4682815 -0.14084657 -0.61378473 -0.6983973 0.56593573 -0.12442659 -0.36834288 0.36770877 0.1863517 0.028657999 -0.05339785 0.39465502 0.10745209 -0.12001902 -0.02943229 0.78574586 0.21623567 0.84239197 0.9313081 0.5290195 -0.16938019 0.2796349 0.12834285 -0.2219563 0.09951659 0.16448125 -0.014251355 -0.19219694 0.48788586 0.9705017 0.23077239 0.22446428 0.6265349 -0.29329947 -0.4697291 0.49703714 1.2010722 0.10368883 0.32987538 0.62710917 -0.85010296 -0.15293631 -0.117731914 -0.55335087 0.44752222 -0.8534076 0.19517532 -0.37788862 -0.15701263 1.2494168 0.52135044 0.1968954 -0.57036066 -0.16828424 -0.33671427 -0.019898314 -0.50995386 0.057568833 -0.21906123 0.10559005 -0.35515147
273 0.70299125 0.2536917 0.21157588 0.49882844 -0.017496122 -1.1818544 -0.28093827 -0.013669434 0.48023242 -0.65309894 -0.5808107 0.15674946 0.94748735 0.69700146 0.6375292 1.1938875 0.03206437 -0.63648546 0.8605402 0.2773822 -0.48707378 -0.28529963 -0.6424047 0.32294115 0.19794627 -0.029921949 0.2430258 0.28217125 0.53117275 -0.03617388 0.90306365 0.7414636 0.8515903 -0.2384157 0.70474267 0.23309171 -0.06142393 0.028548887 -0.54087025 0.31356108 -0.83972806 0.57502353 0.14502586 -0.9285589 0.88844734 -0.67446464 -0.64904267 -0.28183994 0.20717914 0.85363907 -0.28810596 0.20159037 1.2661053 0.2640724 -0.22957666 0.09974862 -0.9340959 -0.19554622 0.48488724 -0.8113931 0.42210442 -1.3311611 0.00976101 -0.41345283
285 0.8462171 0.011365963 -0.26026836 0.3150846 -0.6385119 -0.20442656 0.2057664 -0.07743688 -0.03842176 -0.5093199 0.18357968 0.3094406 -0.46420246 0.14813717 0.32484815 0.733247 0.14475153 -0.63084084 0.9659345 -0.22607036 0.59249043 0.6007688 0.0015396811 -0.9405808 -0.061453424 0.71147764 0.40507153 0.068630196 1.2277801 0.14177532 0.6734289 0.6208108 0.60209113 -0.28980783 1.1067444 -0.17689751 -0.35924765 -0.34977746 -0.22195792 0.2815209 0.12819782 0.10183368 -0.1873786 0.32710505 0.26799816 -0.8844171 -0.90250957 0.157979 0.83196414 -0.05331255 0.3994167 -0.36826125 0.81881076 0.115877524 -0.46077165 0.45148885 0.6048208 0.3802011 -0.29337054 -0.65036386 0.620775 -0.57986206 0.15100835 -0.7947981
84 1.1863569 0.22440065 -0.37456667 0.26804993 0.43031412 -0.68507993 -0.03481896 0.5460841 0.023126204 0.22539245 0.51146424 0.58419704 -0.19558336 1.4947712 0.31933862 0.31066626 0.061145063 0.22706392 0.6551367 0.9703709 0.45804998 0.31351498 0.09987343 0.10629332 -0.6074498 -0.11486819 0.44713262 0.5557164 0.38641343 0.041390073 -0.27219617 0.046628863 0.8917688 -0.24461986 -0.30723277 0.58035684 0.044575423 -0.7197492 -0.28265256 0.63764775 0.50563633 -0.094619565 -0.24817748 -0.67791665 0.6905583 -0.33742288 -1.3018371 -0.24774791 -0.037095305 0.6004494 -0.862393 0.4305958 -0.028718166 -0.48564962 -0.3114146 -0.0058210157 0.30640948 0.43946528 0.5634186 0.24110532 0.24371825 0.7222967 0.20213878 0.05027031
283 0.5153643 1.1055963 0.37794125 0.2392286 0.7428132 -0.33403292 0.1552454 -0.34673694 -0.111497894 0.09535424 0.3629987 0.48769417 0.39109805 -0.23580927 1.1148151 0.5765415 0.057554573 0.2561884 1.1378386 0.18630122 -0.18845081 -0.28975287 -0.30266654 -0.279741 -0.54109997 0.014109541 1.2601545 -0.5893511 0.8972661 0.34116912 0.08809969 0.8627374 0.34419537 -0.58940405 1.2232084 0.0782806 -0.095031865 0.1270975 0.2188879 0.4705002 0.09584549 0.38720334 0.533574 -0.31152877 0.4454714 -0.072749846 -0.77278984 0.5990083 -0.31411344 0.45962286 0.2613643 -0.16561115 0.43918803 0.01170898 0.24795975 -0.8627668 -0.1770341 0.64979655 0.09898403 0.4267905 0.837367 -0.53759146 -0.2399606 0.04079512
225 0.5539353 0.39282727 0.13719693 -0.06096487 0.27982414 -0.66625494 -0.07419 0.033319365 -0.23569556 -0.16750358 0.9060745 0.48422858 -0.108495496 0.8496828 0.5266688 0.32065377 -0.20617813 -0.30433664 1.0931336 0.33978802 -0.0024878513 0.33012035 0.0072017233 -0.48276 -0.051410116 0.3595204 0.35005546 0.05268912 0.56332284 0.15330948 0.704481 0.39249143 0.48137805 -0.41195002 0.48409998 0.2568418 -0.1582144 -0.56275827 -0.31188348 0.6122642 -0.060551252 0.33228332 0.11716865 -0.57798463 0.637707 -0.5140804 -1.1108528 0.30366147 -0.26163793 0.2927166 -0.37633997 -0.20172551 0.9888365 -0.00067359005 -0.29524472 -0.39333537 -0.15874194 0.25513196 -0.11343195 -0.26525602 0.022983195 -0.3195226 -0.15498398 -0.50947523
237 0.39926013 0.3942564 0.34221208 0.32565117 0.6870708 -0.30461192 -1.5155255 0.38145334 -1.1334685 0.5124184 0.46410307 -0.12289104 -0.9846704 1.6637594 0.764329 0.52586627 -0.81794864 0.5672818 1.2914228 0.62785894 -0.17273574 -0.28353867 -0.62864 0.17120807 0.16591626 0.52432895 1.2744678 0.015480748 0.096886195 0.29613093 0.37565547 0.53844196 1.2190975 0.3434036 0.91793126 -0.3111742 0.3744988 -0.9725333 -0.73998696 0.36985505 -0.37585372 1.2668469 0.033499625 -0.7672537 -0.55948704 -0.1745649 -0.5843381 0.52287465 0.0021788299 0.9789093 -0.43961042 -0.49122846 1.8630788 -0.3183303 0.5438663 -0.91641295 -1.04103 0.17634334 0.7735342 0.11081351 0.41320968 -0.4115008 0.290934 -0.68579835
214 0.1401415 -0.1470781 0.028331487 -0.3443154 -0.3721106 -0.17284815 0.18795538 -0.25150555 -0.27045333 -0.7923419 0.107847586 -0.13588633 0.03406367 2.137406 1.0801849 0.3972761 0.5378633 -1.2169926 0.8882194 -0.09652405 -0.045563895 -0.09840674 0.058272097 -0.66521114 -0.034537572 0.617654 0.6363605 -0.45508495 0.3655888 0.98748374 1.55679 0.19620992 0.05257339 -1.173321 0.34955364 -0.015473396 -1.0336481 -0.695368 -1.0539275 0.70547944 0.13384086 0.33750227 0.40102237 -0.6958075 1.1056316 0.5187489 -0.4490844 0.06867657 0.24978574 0.5664132 0.22287974 -0.26836628 1.2820734 0.11626331 0.72462875 -1.0076091 0.7275173 0.9812833 -0.5408446 0.5765366 -0.6747773 0.10708812 -0.6766162 -1.0388235
90 0.8289971 0.32843283 -0.41740066 -0.21154705 -0.79535574 0.017259028 0.16383447 -0.22386546 0.5118399 0.15796754 1.6772535 0.41422388 -1.0165372 1.0366497 0.49966893 1.0554307 -0.28103772 0.77008116 0.5605707 1.0730629 0.4070282 1.5296794 0.2434671 -0.26588634 0.49101028 0.018783636 0.2207056 -0.103472 0.93170655 0.8393381 0.27145615 0.46415588 0.051983915 -0.10536445 -0.5633155 0.00799986 -0.2829073 -0.52297306 -0.74509865 1.1738263 -0.8252229 0.33456752 -0.50998026 -0.25521114 0.54732 -0.06363494 -0.8989896 -0.32414326 -0.7954811 1.2117147 -1.4617866 0.073493235 1.3529682 0.7135721 -0.28068975 0.02504412 0.19027229 1.132554 -0.9179219 -0.6816701 0.07413874 0.10783757 0.09183934 -0.55051064
227 1.0440979 0.1340764 1.0522482 0.19382022 0.84328735 -0.64153653 0.7459227 -0.036902457 0.41244036 -0.42701623 0.6570477 -0.1644348 0.78158265 2.1327534 0.948038 0.55346245 -0.21494672 -0.87370014 1.3764362 0.44919816 1.426659 0.37575608 -0.019467313 -0.5685649 -0.31659847 0.6989332 0.41879147 1.2494549 0.8289668 -0.1270008 0.6200048 0.6830942 0.7499151 -0.36412823 1.0044866 -0.10443959 0.062532835 -0.20160607 -1.1653874 0.9515408 -0.6657121 0.1921624 -0.08441298 0.47027525 1.076962 -0.19487746 0.33966392 -0.42574316 -0.06292903 0.3940589 -0.3653259 0.6046202 0.98790264 -0.74578464 -0.42114842 -0.025346426 -0.026510237 -0.11329931 -0.7897887 -0.2629521 0.62144697 -0.07498427 -0.7595531 -1.3372706
301 0.33024782 -0.3868073 -0.5866076 -0.14815998 -0.44214317 -0.63411367 0.12918575 0.24120936 -0.079336844 -0.6160816 1.1416159 1.6171546 0.008789601 0.8634377 -0.30137742 1.180614 -0.024815347 -0.891787 1.6321561 0.2702163 0.011618717 -1.1508112 0.51811635 -0.7735476 0.463255 0.5757058 0.4673864 -0.59825224 1.0087744 -0.12328758 1.040074 1.0693187 0.42745203 0.6736669 -0.36442837 0.71356094 -0.4152079 0.12501028 -0.21498449 1.0400887 -0.0050576655 0.0700334 1.0792707 -0.41530958 -0.17979296 -0.5237562 -0.747489 0.02227901 -0.3398718 0.34682137 -0.027599547 -0.6473265 1.3299865 -0.048055135 0.22475189 -0.2556549 -0.31120536 0.59027547 -0.88831735 -1.0355324 0.17240658 -0.4885784 -1.5062615 -0.81002766
100 0.57645386 0.42724627 0.062099192 -0.08130827 0.2416104 -0.5472941 -0.07273262 0.03471466 -0.23391485 -0.1430236 0.79991186 0.42838395 -0.11331123 0.6823369 0.41742247 0.31127638 -0.20800924 -0.26023796 1.0751125 0.1763441 -0.023096908 0.35069662 0.030592136 -0.41676208 -0.12330301 0.2433716 0.3242806 0.045142435 0.4775726 0.15799 0.7083697 0.30840558 0.47380888 -0.28340837 0.39598957 0.2670754 -0.16097297 -0.48934248 -0.3867345 0.51145315 -0.04157102 0.29347417 0.045599036 -0.54373515 0.5474779 -0.49960986 -0.9861507 0.25476936 -0.16861606 0.27094162 -0.30026996 -0.13246898 0.80649173 -0.036824383 -0.2639898 -0.30850455 -0.13955079 0.3572003 -0.16201505 -0.27178875 -0.018232184 -0.24471582 -0.22217444 -0.51412886
303 0.6024609 0.46233225 0.14575502 -0.09375268 0.28877097 -0.6977137 -0.060622513 0.076057464 -0.26473477 -0.19435722 0.97744423 0.5191985 -0.082951985 0.9818522 0.5633689 0.3836548 -0.2116309 -0.3140258 1.2066797 0.35833094 -0.021445207 0.3493004 0.022744117 -0.52382857 -0.12636696 0.39256024 0.37578467 -0.00086527545 0.57391 0.23320192 0.784229 0.4110764 0.5553319 -0.40895396 0.48675165 0.2678507 -0.15517253 -0.63145083 -0.37595755 0.6639682 -0.058305234 0.3690087 0.10731043 -0.6081554 0.67941964 -0.5131773 -1.1804476 0.32054985 -0.28508136 0.3237578 -0.41940725 -0.28579012 1.1064963 0.006068104 -0.33404666 -0.4127361 -0.19749962 0.26847336 -0.1338043 -0.30062738 0.04766411 -0.35889578 -0.21659456 -0.59899604
43 0.93511593 0.49770635 0.071148865 0.2092369 -0.4924025 -0.98353004 -0.2814051 -0.41415915 -0.2630096 -0.38713455 1.636696 1.4738234 -0.13955246 0.16848765 -0.15879455 0.8396818 -1.0919894 0.42627218 1.615872 -0.2800498 0.16215836 0.548975 -0.3005419 -0.49177516 0.10584198 -0.4284356 -0.4501337 0.41906855 0.5799095 0.7788736 1.2718652 0.3934795 0.50287944 -0.16765866 1.1037409 -0.5123053 0.37936655 -0.60894537 -0.28628784 1.3739083 0.85590273 0.09630567 0.7911679 -1.265285 -0.07439537 -0.26319087 -0.5335391 -0.2213902 -0.18635707 1.4700733 -0.3206291 -0.45310178 0.7069333 0.23186943 1.0163687 0.32181358 -0.09848017 0.51866096 -0.21100874 0.2596082 -0.80076957 0.15783271 -0.5144299 -1.2266762
203 0.58028615 0.36753696 0.12082184 -0.086117804 0.21031667 -0.6016304 -0.08840712 0.013550841 -0.18901594 -0.1374084 0.8342801 0.42414692 -0.09088629 0.85188746 0.5113141 0.35404617 -0.19328235 -0.33055285 1.0516624 0.35967833 0.03480246 0.34119472 0.052964535 -0.4301206 -0.12089594 0.2893421 0.3660376 0.022769054 0.51877016 0.21997905 0.6681281 0.32102633 0.43494546 -0.4054574 0.4067733 0.25938264 -0.11216501 -0.5688923 -0.35549167 0.5703611 -0.027447734 0.32143116 0.10288184 -0.5537015 0.56976515 -0.41460612 -0.985127 0.229788 -0.18846859 0.3504946 -0.38370267 -0.21879935 0.9587023 0.0466756 -0.24127476 -0.40845495 -0.14335033 0.25513962 -0.16063285 -0.27011457 0.02533543 -0.33372706 -0.16357894 -0.4997584
238 0.55931467 0.38256845 0.10147975 -0.030318065 0.27497527 -0.5237288 -0.10448991 0.0925451 -0.15785857 -0.12434405 0.86079216 0.40718678 -0.06821172 0.75945985 0.500342 0.32740507 -0.2334324 -0.23043793 1.0411139 0.24938715 -0.029437613 0.3103407 0.060207773 -0.37549686 -0.042937893 0.27632257 0.39620453 -0.003657808 0.46889883 0.16027886 0.63662314 0.35499597 0.48090467 -0.29940975 0.44148466 0.20506725 -0.10956848 -0.50410706 -0.33207378 0.5174487 -0.055807516 0.30496314 0.08450289 -0.5068574 0.58301157 -0.45676926 -0.9637813 0.23327716 -0.25618118 0.3034253 -0.39102083 -0.16034947 0.87738556 -0.016691383 -0.24333443 -0.34076992 -0.12626576 0.27995467 -0.07561383 -0.23812878 0.054499064 -0.29646417 -0.15144554 -0.49949738
111 1.1033016 -0.11145953 -0.2716559 0.25420547 0.6107936 -0.7631724 0.09831626 0.5091514 0.50405186 -0.33988443 0.9282127 -0.50714254 -0.29256096 0.1597384 0.41113856 -0.010730643 0.7654526 -0.6096505 1.2113398 0.43645135 0.39841917 0.12762459 0.06955678 -0.77453816 0.6554987 0.1701608 0.7663661 0.570385 1.2406013 0.97817445 0.6328485 -0.5215275 -0.25018007 0.47052777 -0.55680317 0.27518 0.38947454 -1.2003521 -1.04944 0.8905361 -0.16543645 0.721755 -0.16867834 -0.2965063 1.7394891 -1.3488294 -0.7829227 0.5877093 0.43587872 0.22199051 0.1243893 -0.62288934 1.3267376 -0.048161194 0.6447703 -0.59619063 -1.0943376 0.50741494 -0.26580834 -0.66850156 0.6239603 0.21792036 -0.06955665 -1.2568318
204 0.581022 0.42985308 0.071792945 -0.027953312 0.2597238 -0.57145303 -0.07757419 0.027436567 -0.1992725 -0.13030455 0.8734317 0.42725164 -0.041113224 0.7833055 0.48084125 0.29079974 -0.20113222 -0.27991363 1.0235422 0.26475954 -0.013633183 0.36382636 0.06587062 -0.42488977 -0.13845202 0.32487833 0.37720087 0.032846205 0.44433364 0.16021492 0.63304085 0.37341177 0.4444337 -0.34943447 0.46458334 0.25001436 -0.122478835 -0.5490114 -0.3066906 0.5852192 -0.008125911 0.3127925 0.051995978 -0.5305066 0.6379934 -0.4506078 -1.0460207 0.25801775 -0.23282291 0.3476662 -0.4130659 -0.14404547 0.89320314 0.029757863 -0.27492917 -0.3949769 -0.13004604 0.26710334 -0.13211146 -0.2338945 0.06918658 -0.28882524 -0.19978394 -0.46745616
50 1.1611313 -0.97692215 0.8221097 0.0053324415 -0.3555805 -0.8332535 -0.015827043 -0.30022737 -0.43136674 -0.6580848 0.8006853 0.9335812 0.54060704 0.70443004 0.8426985 0.77832806 -0.09914333 0.19778761 0.8918357 0.19959916 -0.2977663 0.9237528 -0.18657757 -1.0878235 -0.15639663 -0.002167459 0.39912885 1.1879973 0.584572 -0.3195668 0.124065876 -0.0628996 0.031055795 -0.34260538 0.47809103 0.37230417 0.022637354 -0.42937905 -1.2407414 1.6217804 -0.36946154 -0.72957146 -0.6694442 -1.1487902 -0.12602216 -1.3462024 -0.7373662 0.27290115 -0.8270643 -0.26799947 -0.7807639 -0.4583914 0.94897765 -1.0679606 -0.5328451 -0.99450785 -0.2536114 0.16602252 -0.56062526 -0.6599848 0.23547207 0.8506659 -0.015897801 -0.6884582
258 0.9035914 -0.5478535 -0.36932066 0.60314375 -0.22105584 -0.6032264 -1.1345671 -0.72501445 -0.78956175 0.40339628 0.95167786 0.15053119 0.16959836 1.4369556 0.040555254 1.1998298 -0.4423225 -0.070724994 1.4621993 -0.8961678 0.33417413 0.3568327 -0.009827267 -1.4957674 0.42874506 -0.22385208 0.31756786 0.54618657 0.28176022 0.63769865 0.22665535 -0.37393016 0.2685254 -0.6400416 0.42207694 0.37402344 -0.42351288 0.42164585 -0.35637176 0.8433573 0.8729298 0.3297114 -0.12199891 -0.45489413 1.1560199 -0.13286713 -1.1873114 0.09609374 -0.04412121 0.80211765 -0.7698623 -0.66641694 1.8950139 -0.73234355 -0.33074754 0.5973624 -0.93018204 1.0970527 -0.14608529 0.33847302 0.11021209 -0.02503277 0.17576918 0.05817713
